{"learner":{"attributes":{"scikit_learn":"{\"_estimator_type\": \"regressor\"}"},"feature_names":["temperature_2m","relative_humidity_2m","precipitation","sin_day","cos_day","city_encoded"],"feature_types":["float","float","float","float","float","int"],"gradient_booster":{"model":{"cats":{"enc":[],"feature_segments":[],"sorted_idx":[]},"gbtree_model_param":{"num_parallel_tree":"1","num_trees":"100"},"iteration_indptr":[0,1,2,3,4,5,6,7,8,9,10,11,12,13,14,15,16,17,18,19,20,21,22,23,24,25,26,27,28,29,30,31,32,33,34,35,36,37,38,39,40,41,42,43,44,45,46,47,48,49,50,51,52,53,54,55,56,57,58,59,60,61,62,63,64,65,66,67,68,69,70,71,72,73,74,75,76,77,78,79,80,81,82,83,84,85,86,87,88,89,90,91,92,93,94,95,96,97,98,99,100],"tree_info":[0,0,0,0,0,0,0,0,0,0,0,0,0,0,0,0,0,0,0,0,0,0,0,0,0,0,0,0,0,0,0,0,0,0,0,0,0,0,0,0,0,0,0,0,0,0,0,0,0,0,0,0,0,0,0,0,0,0,0,0,0,0,0,0,0,0,0,0,0,0,0,0,0,0,0,0,0,0,0,0,0,0,0,0,0,0,0,0,0,0,0,0,0,0,0,0,0,0,0,0],"trees":[{"base_weights":[1.6699051E-6,-1.5572966E1,1.3593755E1,-2.5639898E1,-8.589562E0,6.2586083E0,2.2348602E1,-3.2020344E1,-2.1461466E1,-1.2739545E1,-4.7565804E0,2.7698312E0,1.0229366E1,1.8580032E1,2.7008688E1,-3.899208E1,-2.9982243E1,-2.3882229E1,-1.9361748E1,-1.5193788E1,-1.0975467E1,-6.6399364E0,-3.061854E0,8.655795E-1,4.728669E0,8.281799E0,1.2321387E1,1.6709831E1,2.109812E1,2.5027636E1,2.9232872E1,-4.5509253E0,-3.74418E0,-3.2104766E0,-2.8237574E0,-2.4845612E0,-2.2552927E0,-2.0359218E0,-1.7967907E0,-1.6240559E0,-1.4176637E0,-1.2449743E0,-1.0057014E0,-7.6280725E-1,-5.711767E-1,-4.1191015E-1,-2.0669857E-1,4.9187866E-4,1.7652884E-1,3.7775302E-1,5.679316E-1,7.341137E-1,9.2458075E-1,1.1414074E0,1.3290842E0,1.5780084E0,1.8111867E0,2.0180674E0,2.2032757E0,2.3974404E0,2.6023474E0,2.837094E0,3.099967E0],"categories":[],"categories_nodes":[],"categories_segments":[],"categories_sizes":[],"default_left":[0,0,0,0,0,0,0,0,0,0,0,0,0,0,0,0,0,0,0,0,0,0,0,0,0,0,0,0,0,0,0,0,0,0,0,0,0,0,0,0,0,0,0,0,0,0,0,0,0,0,0,0,0,0,0,0,0,0,0,0,0,0,0],"id":0,"left_children":[1,3,5,7,9,11,13,15,17,19,21,23,25,27,29,31,33,35,37,39,41,43,45,47,49,51,53,55,57,59,61,-1,-1,-1,-1,-1,-1,-1,-1,-1,-1,-1,-1,-1,-1,-1,-1,-1,-1,-1,-1,-1,-1,-1,-1,-1,-1,-1,-1,-1,-1,-1,-1],"loss_changes":[2.1169932E7,3.27639E6,3.42872E6,5.08231E5,4.3769462E5,4.0245938E5,4.26972E5,1.061385E5,5.81845E4,5.70385E4,4.5647562E4,5.768967E4,5.526025E4,6.304E4,4.7212E4,1.552275E4,2.0749E4,6.2975E3,8.232E3,5.65025E3,1.02888125E4,6.1710938E3,7.9148594E3,6.073946E3,6.8721562E3,6.3160625E3,5.6088125E3,9.78925E3,4.47125E3,5.4195E3,6.9175E3,0E0,0E0,0E0,0E0,0E0,0E0,0E0,0E0,0E0,0E0,0E0,0E0,0E0,0E0,0E0,0E0,0E0,0E0,0E0,0E0,0E0,0E0,0E0,0E0,0E0,0E0,0E0,0E0,0E0,0E0,0E0,0E0],"parents":[2147483647,0,0,1,1,2,2,3,3,4,4,5,5,6,6,7,7,8,8,9,9,10,10,11,11,12,12,13,13,14,14,15,15,16,16,17,17,18,18,19,19,20,20,21,21,22,22,23,23,24,24,25,25,26,26,27,27,28,28,29,29,30,30],"right_children":[2,4,6,8,10,12,14,16,18,20,22,24,26,28,30,32,34,36,38,40,42,44,46,48,50,52,54,56,58,60,62,-1,-1,-1,-1,-1,-1,-1,-1,-1,-1,-1,-1,-1,-1,-1,-1,-1,-1,-1,-1,-1,-1,-1,-1,-1,-1,-1,-1,-1,-1,-1,-1],"split_conditions":[6.6E1,4.9E1,8.2E1,3.9E1,5.8E1,7.4E1,9.1E1,3E1,4.4E1,5.3E1,6.2E1,7E1,7.8E1,8.7E1,9.5E1,2.3E1,3.5E1,4.2E1,4.7E1,5.1E1,5.5E1,6E1,6.4E1,6.8E1,7.2E1,7.6E1,8E1,8.5E1,8.9E1,9.3E1,9.8E1,-4.5509253E0,-3.74418E0,-3.2104766E0,-2.8237574E0,-2.4845612E0,-2.2552927E0,-2.0359218E0,-1.7967907E0,-1.6240559E0,-1.4176637E0,-1.2449743E0,-1.0057014E0,-7.6280725E-1,-5.711767E-1,-4.1191015E-1,-2.0669857E-1,4.9187866E-4,1.7652884E-1,3.7775302E-1,5.679316E-1,7.341137E-1,9.2458075E-1,1.1414074E0,1.3290842E0,1.5780084E0,1.8111867E0,2.0180674E0,2.2032757E0,2.3974404E0,2.6023474E0,2.837094E0,3.099967E0],"split_indices":[1,1,1,1,1,1,1,1,1,1,1,1,1,1,1,1,1,1,1,1,1,1,1,1,1,1,1,1,1,1,1,0,0,0,0,0,0,0,0,0,0,0,0,0,0,0,0,0,0,0,0,0,0,0,0,0,0,0,0,0,0,0,0],"split_type":[0,0,0,0,0,0,0,0,0,0,0,0,0,0,0,0,0,0,0,0,0,0,0,0,0,0,0,0,0,0,0,0,0,0,0,0,0,0,0,0,0,0,0,0,0,0,0,0,0,0,0,0,0,0,0,0,0,0,0,0,0,0,0],"sum_hessian":[1E5,4.6607E4,5.3393E4,1.9088E4,2.7519E4,2.9053E4,2.434E4,7.551E3,1.1537E4,1.3212E4,1.4307E4,1.5466E4,1.3587E4,1.346E4,1.088E4,1.704E3,5.847E3,5.354E3,6.183E3,5.522E3,7.69E3,6.775E3,7.532E3,7.843E3,7.623E3,7.039E3,6.548E3,7.728E3,5.732E3,5.761E3,5.119E3,3.22E2,1.382E3,2.63E3,3.217E3,3.094E3,2.26E3,3.596E3,2.587E3,2.714E3,2.808E3,2.947E3,4.743E3,3.278E3,3.497E3,3.65E3,3.882E3,4.009E3,3.834E3,3.813E3,3.81E3,3.567E3,3.472E3,3.389E3,3.159E3,4.654E3,3.074E3,2.904E3,2.828E3,2.812E3,2.949E3,3.452E3,1.667E3],"tree_param":{"num_deleted":"0","num_feature":"6","num_nodes":"63","size_leaf_vector":"1"}},{"base_weights":[-6.284792E-5,-1.4016316E1,1.2234824E1,-2.3077108E1,-7.7308702E0,5.6329274E0,2.0114504E1,-2.944179E1,-1.9673698E1,-1.1465992E1,-4.2810593E0,2.492921E0,9.206731E0,1.63086E1,2.3857967E1,-3.509774E1,-2.7485706E1,-2.2353945E1,-1.7809229E1,-1.367496E1,-9.878215E0,-5.9761395E0,-2.7557516E0,7.790459E-1,4.2559257E0,7.4538527E0,1.10896225E1,1.4601979E1,1.8107159E1,2.209824E1,2.6310741E1,-3.9473145E0,-3.3186855E0,-2.9410102E0,-2.617213E0,-2.3835328E0,-2.150049E0,-1.9069794E0,-1.6623439E0,-1.4617103E0,-1.2759478E0,-1.1205192E0,-9.0515274E-1,-6.8654954E-1,-5.140755E-1,-3.7073034E-1,-1.8603432E-1,-5.7629526E-2,1.2533163E-1,3.399875E-1,5.1115334E-1,6.6072273E-1,8.32149E-1,1.0272999E0,1.1962175E0,1.3726565E0,1.5458442E0,1.725865E0,1.898506E0,2.0644648E0,2.3035185E0,2.5534666E0,2.7901561E0],"categories":[],"categories_nodes":[],"categories_segments":[],"categories_sizes":[],"default_left":[0,0,0,0,0,0,0,0,0,0,0,0,0,0,0,0,0,0,0,0,0,0,0,0,0,0,0,0,0,0,0,0,0,0,0,0,0,0,0,0,0,0,0,0,0,0,0,0,0,0,0,0,0,0,0,0,0,0,0,0,0,0,0],"id":1,"left_children":[1,3,5,7,9,11,13,15,17,19,21,23,25,27,29,31,33,35,37,39,41,43,45,47,49,51,53,55,57,59,61,-1,-1,-1,-1,-1,-1,-1,-1,-1,-1,-1,-1,-1,-1,-1,-1,-1,-1,-1,-1,-1,-1,-1,-1,-1,-1,-1,-1,-1,-1,-1,-1],"loss_changes":[1.7149072E7,2.654199E6,2.777487E6,4.12919E5,3.5455875E5,3.260143E5,3.46404E5,7.2597E4,6.17725E4,4.6207625E4,3.6977156E4,4.6731305E4,4.476425E4,3.679325E4,5.23735E4,1.2945E4,1.17305E4,5.9355E3,1.065775E4,4.5771875E3,8.3355625E3,4.998953E3,6.411426E3,5.0428306E3,5.5667656E3,5.1163438E3,4.5435625E3,4.436375E3,4.048E3,9.26225E3,5.609E3,0E0,0E0,0E0,0E0,0E0,0E0,0E0,0E0,0E0,0E0,0E0,0E0,0E0,0E0,0E0,0E0,0E0,0E0,0E0,0E0,0E0,0E0,0E0,0E0,0E0,0E0,0E0,0E0,0E0,0E0,0E0,0E0],"parents":[2147483647,0,0,1,1,2,2,3,3,4,4,5,5,6,6,7,7,8,8,9,9,10,10,11,11,12,12,13,13,14,14,15,15,16,16,17,17,18,18,19,19,20,20,21,21,22,22,23,23,24,24,25,25,26,26,27,27,28,28,29,29,30,30],"right_children":[2,4,6,8,10,12,14,16,18,20,22,24,26,28,30,32,34,36,38,40,42,44,46,48,50,52,54,56,58,60,62,-1,-1,-1,-1,-1,-1,-1,-1,-1,-1,-1,-1,-1,-1,-1,-1,-1,-1,-1,-1,-1,-1,-1,-1,-1,-1,-1,-1,-1,-1,-1,-1],"split_conditions":[6.6E1,4.9E1,8.2E1,3.8E1,5.8E1,7.4E1,9E1,3E1,4.3E1,5.3E1,6.2E1,7E1,7.8E1,8.6E1,9.5E1,2.5E1,3.4E1,4E1,4.6E1,5.1E1,5.5E1,6E1,6.4E1,6.7E1,7.2E1,7.6E1,8E1,8.4E1,8.8E1,9.2E1,9.8E1,-3.9473145E0,-3.3186855E0,-2.9410102E0,-2.617213E0,-2.3835328E0,-2.150049E0,-1.9069794E0,-1.6623439E0,-1.4617103E0,-1.2759478E0,-1.1205192E0,-9.0515274E-1,-6.8654954E-1,-5.140755E-1,-3.7073034E-1,-1.8603432E-1,-5.7629526E-2,1.2533163E-1,3.399875E-1,5.1115334E-1,6.6072273E-1,8.32149E-1,1.0272999E0,1.1962175E0,1.3726565E0,1.5458442E0,1.725865E0,1.898506E0,2.0644648E0,2.3035185E0,2.5534666E0,2.7901561E0],"split_indices":[1,1,1,1,1,1,1,1,1,1,1,1,1,1,1,1,1,1,1,1,1,1,1,1,1,1,1,1,1,1,1,0,0,0,0,0,0,0,0,0,0,0,0,0,0,0,0,0,0,0,0,0,0,0,0,0,0,0,0,0,0,0,0],"split_type":[0,0,0,0,0,0,0,0,0,0,0,0,0,0,0,0,0,0,0,0,0,0,0,0,0,0,0,0,0,0,0,0,0,0,0,0,0,0,0,0,0,0,0,0,0,0,0,0,0,0,0,0,0,0,0,0,0,0,0,0,0,0,0],"sum_hessian":[1E5,4.6607E4,5.3393E4,1.9088E4,2.7519E4,2.9053E4,2.434E4,6.648E3,1.244E4,1.3212E4,1.4307E4,1.5466E4,1.3587E4,1.2072E4,1.2268E4,1.704E3,4.944E3,5.099E3,7.341E3,5.522E3,7.69E3,6.775E3,7.532E3,7.843E3,7.623E3,7.039E3,6.548E3,6.199E3,5.873E3,7.149E3,5.119E3,5.12E2,1.192E3,1.997E3,2.947E3,1.854E3,3.245E3,3.551E3,3.79E3,2.714E3,2.808E3,2.947E3,4.743E3,3.278E3,3.497E3,3.65E3,3.882E3,2.033E3,5.81E3,3.813E3,3.81E3,3.567E3,3.472E3,3.389E3,3.159E3,3.074E3,3.125E3,2.997E3,2.876E3,2.811E3,4.338E3,3.452E3,1.667E3],"tree_param":{"num_deleted":"0","num_feature":"6","num_nodes":"63","size_leaf_vector":"1"}},{"base_weights":[-1.2230198E-4,-1.2615274E1,1.1011733E1,-2.1265509E1,-7.275038E0,5.0697956E0,1.810372E1,-2.7134462E1,-1.8430752E1,-1.1052979E1,-4.215027E0,2.2436895E0,8.286333E0,1.5047507E1,2.1882929E1,-3.32457E1,-2.5721909E1,-2.0419971E1,-1.6466793E1,-1.3097548E1,-9.570829E0,-6.208644E0,-2.7885053E0,1.0373169E0,4.28161E0,6.708682E0,9.981E0,1.3526906E1,1.7094894E1,2.0592434E1,2.4122467E1,-3.8103428E0,-3.1848857E0,-2.7913315E0,-2.472169E0,-2.1691773E0,-1.9351103E0,-1.7560999E0,-1.5769632E0,-1.336662E0,-1.0627455E0,-1.0322249E0,-8.5220766E-1,-6.983433E-1,-5.469369E-1,-3.5888487E-1,-1.674356E-1,-2.8108398E-3,1.7856207E-1,3.939242E-1,4.9951363E-1,5.9466916E-1,7.4895847E-1,9.246004E-1,1.0766333E0,1.2354354E0,1.4298567E0,1.635269E0,1.7850996E0,1.9805902E0,2.185476E0,2.3642595E0,2.5801322E0],"categories":[],"categories_nodes":[],"categories_segments":[],"categories_sizes":[],"default_left":[0,0,0,0,0,0,0,0,0,0,0,0,0,0,0,0,0,0,0,0,0,0,0,0,0,0,0,0,0,0,0,0,0,0,0,0,0,0,0,0,0,0,0,0,0,0,0,0,0,0,0,0,0,0,0,0,0,0,0,0,0,0,0],"id":2,"left_children":[1,3,5,7,9,11,13,15,17,19,21,23,25,27,29,31,33,35,37,39,41,43,45,47,49,51,53,55,57,59,61,-1,-1,-1,-1,-1,-1,-1,-1,-1,-1,-1,-1,-1,-1,-1,-1,-1,-1,-1,-1,-1,-1,-1,-1,-1,-1,-1,-1,-1,-1,-1,-1],"loss_changes":[1.3891901E7,2.152869E6,2.249939E6,2.95474E5,3.3311675E5,2.640902E5,2.80811E5,4.91435E4,4.65405E4,3.8954125E4,4.526953E4,3.8021055E4,3.6261812E4,4.16765E4,3.09505E4,6.142E3,9.63175E3,7.67825E3,4.332875E3,3.45825E3,5.8066875E3,3.7656406E3,8.272547E3,7.747043E3,1.3852266E3,4.1445938E3,3.6806875E3,6.816625E3,2.925375E3,6.42775E3,2.58975E3,0E0,0E0,0E0,0E0,0E0,0E0,0E0,0E0,0E0,0E0,0E0,0E0,0E0,0E0,0E0,0E0,0E0,0E0,0E0,0E0,0E0,0E0,0E0,0E0,0E0,0E0,0E0,0E0,0E0,0E0,0E0,0E0],"parents":[2147483647,0,0,1,1,2,2,3,3,4,4,5,5,6,6,7,7,8,8,9,9,10,10,11,11,12,12,13,13,14,14,15,15,16,16,17,17,18,18,19,19,20,20,21,21,22,22,23,23,24,24,25,25,26,26,27,27,28,28,29,29,30,30],"right_children":[2,4,6,8,10,12,14,16,18,20,22,24,26,28,30,32,34,36,38,40,42,44,46,48,50,52,54,56,58,60,62,-1,-1,-1,-1,-1,-1,-1,-1,-1,-1,-1,-1,-1,-1,-1,-1,-1,-1,-1,-1,-1,-1,-1,-1,-1,-1,-1,-1,-1,-1,-1,-1],"split_conditions":[6.6E1,4.8E1,8.2E1,3.7E1,5.7E1,7.4E1,9.1E1,2.8E1,4.3E1,5.2E1,6.1E1,7.1E1,7.8E1,8.7E1,9.6E1,2.2E1,3.2E1,4E1,4.5E1,1E-1,5.5E1,5.9E1,6.4E1,6.8E1,7.3E1,7.6E1,8E1,8.4E1,8.9E1,9.4E1,9.9E1,-3.8103428E0,-3.1848857E0,-2.7913315E0,-2.472169E0,-2.1691773E0,-1.9351103E0,-1.7560999E0,-1.5769632E0,-1.336662E0,-1.0627455E0,-1.0322249E0,-8.5220766E-1,-6.983433E-1,-5.469369E-1,-3.5888487E-1,-1.674356E-1,-2.8108398E-3,1.7856207E-1,3.939242E-1,4.9951363E-1,5.9466916E-1,7.4895847E-1,9.246004E-1,1.0766333E0,1.2354354E0,1.4298567E0,1.635269E0,1.7850996E0,1.9805902E0,2.185476E0,2.3642595E0,2.5801322E0],"split_indices":[1,1,1,1,1,1,1,1,1,1,1,1,1,1,1,1,1,1,1,2,1,1,1,1,1,1,1,1,1,1,1,0,0,0,0,0,0,0,0,0,0,0,0,0,0,0,0,0,0,0,0,0,0,0,0,0,0,0,0,0,0,0,0],"split_type":[0,0,0,0,0,0,0,0,0,0,0,0,0,0,0,0,0,0,0,0,0,0,0,0,0,0,0,0,0,0,0,0,0,0,0,0,0,0,0,0,0,0,0,0,0,0,0,0,0,0,0,0,0,0,0,0,0,0,0,0,0,0,0],"sum_hessian":[1E5,4.6607E4,5.3393E4,1.7789E4,2.8818E4,2.9053E4,2.434E4,5.791E3,1.1998E4,1.2895E4,1.5923E4,1.5466E4,1.3587E4,1.346E4,1.088E4,1.083E3,4.708E3,5.956E3,6.042E3,5.416E3,7.479E3,6.64E3,9.283E3,9.716E3,5.75E3,7.039E3,6.548E3,7.728E3,5.732E3,6.909E3,3.971E3,2.36E2,8.47E2,1.467E3,3.241E3,2.711E3,3.245E3,2.342E3,3.7E3,4.88E3,5.36E2,4.352E3,3.127E3,3.238E3,3.402E3,5.401E3,3.882E3,4.009E3,5.707E3,3.89E3,1.86E3,3.567E3,3.472E3,3.389E3,3.159E3,3.074E3,4.654E3,2.904E3,2.828E3,4.267E3,2.642E3,3.1E3,8.71E2],"tree_param":{"num_deleted":"0","num_feature":"6","num_nodes":"63","size_leaf_vector":"1"}},{"base_weights":[-1.7084519E-4,-1.0901307E1,1.0323658E1,-1.8297848E1,-5.562248E0,4.9451113E0,1.6293972E1,-2.3359783E1,-1.5319186E1,-8.574449E0,-2.7923808E0,2.7076104E0,7.8642807E0,1.32062645E1,1.9331024E1,-2.7823772E1,-2.1639778E1,-1.7418734E1,-1.3815258E1,-1.0001075E1,-6.9667473E0,-4.218501E0,-1.5333389E0,1.317171E0,4.110293E0,6.447024E0,8.983208E0,1.1809021E1,1.4678805E1,1.7494041E1,2.0899008E1,-3.2067113E0,-2.6432824E0,-2.2845438E0,-2.0206127E0,-1.813435E0,-1.643145E0,-1.4863745E0,-1.2842195E0,-1.1096308E0,-9.2902595E-1,-7.2202986E-1,-4.76374E-1,-4.922594E-1,-3.5325202E-1,-2.3478404E-1,-7.4629836E-2,6.926542E-2,1.9523272E-1,3.5454226E-1,4.6992326E-1,6.119859E-1,7.0946044E-1,8.321678E-1,9.6900445E-1,1.1119319E0,1.2483693E0,1.4003396E0,1.5377519E0,1.669752E0,1.8275174E0,2.0012481E0,2.2244523E0],"categories":[],"categories_nodes":[],"categories_segments":[],"categories_sizes":[],"default_left":[0,0,0,0,0,0,0,0,0,0,0,0,0,0,0,0,0,0,0,0,0,0,0,0,0,0,0,0,0,0,0,0,0,0,0,0,0,0,0,0,0,0,0,0,0,0,0,0,0,0,0,0,0,0,0,0,0,0,0,0,0,0,0],"id":3,"left_children":[1,3,5,7,9,11,13,15,17,19,21,23,25,27,29,31,33,35,37,39,41,43,45,47,49,51,53,55,57,59,61,-1,-1,-1,-1,-1,-1,-1,-1,-1,-1,-1,-1,-1,-1,-1,-1,-1,-1,-1,-1,-1,-1,-1,-1,-1,-1,-1,-1,-1,-1,-1,-1],"loss_changes":[1.1254372E7,1.920759E6,1.649204E6,3.070935E5,2.3568525E5,1.7647025E5,2.280035E5,5.738275E4,4.03025E4,3.0969438E4,2.6422156E4,2.983096E4,1.8534125E4,2.466675E4,3.49735E4,1.152925E4,8.969E3,3.485375E3,7.44675E3,5.47725E3,3.5214688E3,3.3157656E3,5.010582E3,3.046628E3,2.5166719E3,1.0531875E3,2.981625E3,2.7461875E3,2.55675E3,3.213875E3,7.44425E3,0E0,0E0,0E0,0E0,0E0,0E0,0E0,0E0,0E0,0E0,0E0,0E0,0E0,0E0,0E0,0E0,0E0,0E0,0E0,0E0,0E0,0E0,0E0,0E0,0E0,0E0,0E0,0E0,0E0,0E0,0E0,0E0],"parents":[2147483647,0,0,1,1,2,2,3,3,4,4,5,5,6,6,7,7,8,8,9,9,10,10,11,11,12,12,13,13,14,14,15,15,16,16,17,17,18,18,19,19,20,20,21,21,22,22,23,23,24,24,25,25,26,26,27,27,28,28,29,29,30,30],"right_children":[2,4,6,8,10,12,14,16,18,20,22,24,26,28,30,32,34,36,38,40,42,44,46,48,50,52,54,56,58,60,62,-1,-1,-1,-1,-1,-1,-1,-1,-1,-1,-1,-1,-1,-1,-1,-1,-1,-1,-1,-1,-1,-1,-1,-1,-1,-1,-1,-1,-1,-1,-1,-1],"split_conditions":[6.7E1,5E1,8.2E1,3.9E1,5.9E1,7.5E1,9E1,3.1E1,4.4E1,5.5E1,6.3E1,7.1E1,7.8E1,8.6E1,9.4E1,2.5E1,3.6E1,4.2E1,4.7E1,5.2E1,1E-1,6.1E1,6.5E1,6.9E1,7.3E1,7.7E1,8E1,8.4E1,8.8E1,9.2E1,9.7E1,-3.2067113E0,-2.6432824E0,-2.2845438E0,-2.0206127E0,-1.813435E0,-1.643145E0,-1.4863745E0,-1.2842195E0,-1.1096308E0,-9.2902595E-1,-7.2202986E-1,-4.76374E-1,-4.922594E-1,-3.5325202E-1,-2.3478404E-1,-7.4629836E-2,6.926542E-2,1.9523272E-1,3.5454226E-1,4.6992326E-1,6.119859E-1,7.0946044E-1,8.321678E-1,9.6900445E-1,1.1119319E0,1.2483693E0,1.4003396E0,1.5377519E0,1.669752E0,1.8275174E0,2.0012481E0,2.2244523E0],"split_indices":[1,1,1,1,1,1,1,1,1,1,1,1,1,1,1,1,1,1,1,1,2,1,1,1,1,1,1,1,1,1,1,0,0,0,0,0,0,0,0,0,0,0,0,0,0,0,0,0,0,0,0,0,0,0,0,0,0,0,0,0,0,0,0],"split_type":[0,0,0,0,0,0,0,0,0,0,0,0,0,0,0,0,0,0,0,0,0,0,0,0,0,0,0,0,0,0,0,0,0,0,0,0,0,0,0,0,0,0,0,0,0,0,0,0,0,0,0,0,0,0,0,0,0,0,0,0,0,0,0],"sum_hessian":[1E5,4.864E4,5.136E4,2.039E4,2.825E4,2.702E4,2.434E4,7.551E3,1.2839E4,1.3532E4,1.4718E4,1.5297E4,1.1723E4,1.2072E4,1.2268E4,2.096E3,5.455E3,5.354E3,7.485E3,7.167E3,6.365E3,6.9E3,7.818E3,7.683E3,7.614E3,5.175E3,6.548E3,6.199E3,5.873E3,5.655E3,6.613E3,5.12E2,1.584E3,2.955E3,2.5E3,3.094E3,2.26E3,3.596E3,3.889E3,2.815E3,4.352E3,5.706E3,6.59E2,3.402E3,3.498E3,3.841E3,3.977E3,3.875E3,3.808E3,3.89E3,3.724E3,3.445E3,1.73E3,3.389E3,3.159E3,3.074E3,3.125E3,2.997E3,2.876E3,2.811E3,2.844E3,3.996E3,2.617E3],"tree_param":{"num_deleted":"0","num_feature":"6","num_nodes":"63","size_leaf_vector":"1"}},{"base_weights":[-1.892183E-4,-1.0220319E1,8.921035E0,-1.6468868E1,-5.3601327E0,4.108428E0,1.4665111E1,-2.102515E1,-1.3787753E1,-8.065855E0,-3.1073215E0,1.818099E0,6.71517E0,1.1886079E1,1.739855E1,-2.5655046E1,-1.9671696E1,-1.5365634E1,-1.2148344E1,-9.30919E0,-6.917539E0,-4.338808E0,-1.9991758E0,5.522745E-1,3.120212E0,5.4397717E0,8.085163E0,1.0628501E1,1.3211427E1,1.610231E1,1.9205334E1,-3.020852E0,-2.4573033E0,-2.151071E0,-1.871246E0,-1.63215E0,-1.4502419E0,-1.2777478E0,-1.1248816E0,-9.570107E-1,-6.922891E-1,-7.1522224E-1,-4.9515495E-1,-4.5526424E-1,-2.4400075E-1,-2.6864824E-1,-1.3524191E-1,-4.412909E-2,8.99953E-2,2.4957012E-1,3.744396E-1,4.8145947E-1,6.080484E-1,7.489755E-1,8.7213486E-1,1.0007751E0,1.1235726E0,1.2603526E0,1.3840302E0,1.502836E0,1.6794599E0,1.8615723E0,2.0414398E0],"categories":[],"categories_nodes":[],"categories_segments":[],"categories_sizes":[],"default_left":[0,0,0,0,0,0,0,0,0,0,0,0,0,0,0,0,0,0,0,0,0,0,0,0,0,0,0,0,0,0,0,0,0,0,0,0,0,0,0,0,0,0,0,0,0,0,0,0,0,0,0,0,0,0,0,0,0,0,0,0,0,0,0],"id":4,"left_children":[1,3,5,7,9,11,13,15,17,19,21,23,25,27,29,31,33,35,37,39,41,43,45,47,49,51,53,55,57,59,61,-1,-1,-1,-1,-1,-1,-1,-1,-1,-1,-1,-1,-1,-1,-1,-1,-1,-1,-1,-1,-1,-1,-1,-1,-1,-1,-1,-1,-1,-1,-1,-1],"loss_changes":[9.117788E6,1.4153555E6,1.4759625E6,2.488045E5,1.5978631E5,1.7344881E5,1.84695E5,4.6819E4,3.302775E4,1.6941375E4,1.9516984E4,2.5491707E4,2.3698125E4,1.9981875E4,2.8425E4,7.658E3,9.9135E3,5.15875E3,3.4226875E3,3.4926875E3,2.8233125E3,2.7401406E3,3.3449395E3,2.7100386E3,2.9625703E3,2.7906719E3,2.4154062E3,2.2245E3,2.071125E3,5.0635E3,3.27E3,0E0,0E0,0E0,0E0,0E0,0E0,0E0,0E0,0E0,0E0,0E0,0E0,0E0,0E0,0E0,0E0,0E0,0E0,0E0,0E0,0E0,0E0,0E0,0E0,0E0,0E0,0E0,0E0,0E0,0E0,0E0,0E0],"parents":[2147483647,0,0,1,1,2,2,3,3,4,4,5,5,6,6,7,7,8,8,9,9,10,10,11,11,12,12,13,13,14,14,15,15,16,16,17,17,18,18,19,19,20,20,21,21,22,22,23,23,24,24,25,25,26,26,27,27,28,28,29,29,30,30],"right_children":[2,4,6,8,10,12,14,16,18,20,22,24,26,28,30,32,34,36,38,40,42,44,46,48,50,52,54,56,58,60,62,-1,-1,-1,-1,-1,-1,-1,-1,-1,-1,-1,-1,-1,-1,-1,-1,-1,-1,-1,-1,-1,-1,-1,-1,-1,-1,-1,-1,-1,-1,-1,-1],"split_conditions":[6.6E1,5E1,8.2E1,3.9E1,5.8E1,7.4E1,9E1,3E1,4.5E1,5.4E1,6.2E1,7E1,7.8E1,8.6E1,9.5E1,2.3E1,3.4E1,4.2E1,4.8E1,1E-1,1E-1,1E-1,6.4E1,6.7E1,7.2E1,7.6E1,8E1,8.4E1,8.8E1,9.2E1,9.8E1,-3.020852E0,-2.4573033E0,-2.151071E0,-1.871246E0,-1.63215E0,-1.4502419E0,-1.2777478E0,-1.1248816E0,-9.570107E-1,-6.922891E-1,-7.1522224E-1,-4.9515495E-1,-4.5526424E-1,-2.4400075E-1,-2.6864824E-1,-1.3524191E-1,-4.412909E-2,8.99953E-2,2.4957012E-1,3.744396E-1,4.8145947E-1,6.080484E-1,7.489755E-1,8.7213486E-1,1.0007751E0,1.1235726E0,1.2603526E0,1.3840302E0,1.502836E0,1.6794599E0,1.8615723E0,2.0414398E0],"split_indices":[1,1,1,1,1,1,1,1,1,1,1,1,1,1,1,1,1,1,1,2,2,2,1,1,1,1,1,1,1,1,1,0,0,0,0,0,0,0,0,0,0,0,0,0,0,0,0,0,0,0,0,0,0,0,0,0,0,0,0,0,0,0,0],"split_type":[0,0,0,0,0,0,0,0,0,0,0,0,0,0,0,0,0,0,0,0,0,0,0,0,0,0,0,0,0,0,0,0,0,0,0,0,0,0,0,0,0,0,0,0,0,0,0,0,0,0,0,0,0,0,0,0,0,0,0,0,0,0,0],"sum_hessian":[1E5,4.6607E4,5.3393E4,2.039E4,2.6217E4,2.9053E4,2.434E4,7.551E3,1.2839E4,1.191E4,1.4307E4,1.5466E4,1.3587E4,1.2072E4,1.2268E4,1.704E3,5.847E3,6.538E3,6.301E3,5.715E3,6.195E3,6.775E3,7.532E3,7.843E3,7.623E3,7.039E3,6.548E3,6.199E3,5.873E3,7.149E3,5.119E3,3.22E2,1.382E3,1.997E3,3.85E3,3.094E3,3.444E3,3.7E3,2.601E3,5.149E3,5.66E2,5.532E3,6.63E2,6.088E3,6.87E2,3.65E3,3.882E3,2.033E3,5.81E3,3.813E3,3.81E3,3.567E3,3.472E3,3.389E3,3.159E3,3.074E3,3.125E3,2.997E3,2.876E3,2.811E3,4.338E3,3.452E3,1.667E3],"tree_param":{"num_deleted":"0","num_feature":"6","num_nodes":"63","size_leaf_vector":"1"}},{"base_weights":[-2.0825095E-4,-9.198694E0,8.029215E0,-1.4822716E1,-4.824271E0,3.6977005E0,1.3199085E1,-1.982193E1,-1.2838451E1,-7.2595096E0,-2.7966678E0,1.8852649E0,6.3766174E0,1.0966321E1,1.5960049E1,-2.4398182E1,-1.8764278E1,-1.4579095E1,-1.1182358E1,-8.378558E0,-6.225981E0,-4.2317967E0,-2.0195975E0,7.523999E-1,3.3305917E0,5.5187078E0,7.595266E0,9.848907E0,1.247086E1,1.4999503E1,1.762707E1,-2.9560564E0,-2.3531E0,-2.001722E0,-1.7826204E0,-1.5487065E0,-1.3562067E0,-1.2043613E0,-1.0383099E0,-8.6132807E-1,-6.231825E-1,-6.878738E-1,-5.6091183E-1,-4.4193712E-1,-2.6052347E-1,-2.5959826E-1,-1.2172153E-1,2.1318471E-2,1.5887009E-1,2.87888E-1,3.8015395E-1,4.9627405E-1,6.074202E-1,7.295222E-1,8.223427E-1,9.269862E-1,1.0722276E0,1.1929145E0,1.3022718E0,1.4079584E0,1.5627307E0,1.724568E0,1.896315E0],"categories":[],"categories_nodes":[],"categories_segments":[],"categories_sizes":[],"default_left":[0,0,0,0,0,0,0,0,0,0,0,0,0,0,0,0,0,0,0,0,0,0,0,0,0,0,0,0,0,0,0,0,0,0,0,0,0,0,0,0,0,0,0,0,0,0,0,0,0,0,0,0,0,0,0,0,0,0,0,0,0,0,0],"id":5,"left_children":[1,3,5,7,9,11,13,15,17,19,21,23,25,27,29,31,33,35,37,39,41,43,45,47,49,51,53,55,57,59,61,-1,-1,-1,-1,-1,-1,-1,-1,-1,-1,-1,-1,-1,-1,-1,-1,-1,-1,-1,-1,-1,-1,-1,-1,-1,-1,-1,-1,-1,-1,-1,-1],"loss_changes":[7.386002E6,1.1465715E6,1.1956228E6,2.020195E5,1.2943625E5,1.4105572E5,1.49877E5,2.7576E4,4.192375E4,1.37236875E4,1.5947672E4,2.8374586E4,1.2215406E4,2.250775E4,1.7159E4,4.1571875E3,5.177875E3,6.36025E3,5.0280625E3,2.8265625E3,2.4563125E3,1.521625E3,4.2905117E3,4.381506E3,1.6090156E3,2.0958906E3,8.5240625E2,3.8093125E3,1.5585E3,3.77075E3,1.696875E3,0E0,0E0,0E0,0E0,0E0,0E0,0E0,0E0,0E0,0E0,0E0,0E0,0E0,0E0,0E0,0E0,0E0,0E0,0E0,0E0,0E0,0E0,0E0,0E0,0E0,0E0,0E0,0E0,0E0,0E0,0E0,0E0],"parents":[2147483647,0,0,1,1,2,2,3,3,4,4,5,5,6,6,7,7,8,8,9,9,10,10,11,11,12,12,13,13,14,14,15,15,16,16,17,17,18,18,19,19,20,20,21,21,22,22,23,23,24,24,25,25,26,26,27,27,28,28,29,29,30,30],"right_children":[2,4,6,8,10,12,14,16,18,20,22,24,26,28,30,32,34,36,38,40,42,44,46,48,50,52,54,56,58,60,62,-1,-1,-1,-1,-1,-1,-1,-1,-1,-1,-1,-1,-1,-1,-1,-1,-1,-1,-1,-1,-1,-1,-1,-1,-1,-1,-1,-1,-1,-1,-1,-1],"split_conditions":[6.6E1,5E1,8.2E1,3.7E1,5.8E1,7.5E1,9.1E1,2.8E1,4.4E1,5.4E1,6.1E1,7.1E1,7.9E1,8.7E1,9.6E1,2E1,3.3E1,4.1E1,4.7E1,1E-1,5.6E1,1E-1,6.4E1,6.9E1,7.3E1,7.7E1,8.1E1,8.5E1,8.9E1,9.3E1,9.9E1,-2.9560564E0,-2.3531E0,-2.001722E0,-1.7826204E0,-1.5487065E0,-1.3562067E0,-1.2043613E0,-1.0383099E0,-8.6132807E-1,-6.231825E-1,-6.878738E-1,-5.6091183E-1,-4.4193712E-1,-2.6052347E-1,-2.5959826E-1,-1.2172153E-1,2.1318471E-2,1.5887009E-1,2.87888E-1,3.8015395E-1,4.9627405E-1,6.074202E-1,7.295222E-1,8.223427E-1,9.269862E-1,1.0722276E0,1.1929145E0,1.3022718E0,1.4079584E0,1.5627307E0,1.724568E0,1.896315E0],"split_indices":[1,1,1,1,1,1,1,1,1,1,1,1,1,1,1,1,1,1,1,2,1,2,1,1,1,1,1,1,1,1,1,0,0,0,0,0,0,0,0,0,0,0,0,0,0,0,0,0,0,0,0,0,0,0,0,0,0,0,0,0,0,0,0],"split_type":[0,0,0,0,0,0,0,0,0,0,0,0,0,0,0,0,0,0,0,0,0,0,0,0,0,0,0,0,0,0,0,0,0,0,0,0,0,0,0,0,0,0,0,0,0,0,0,0,0,0,0,0,0,0,0,0,0,0,0,0,0,0,0],"sum_hessian":[1E5,4.6607E4,5.3393E4,2.039E4,2.6217E4,2.9053E4,2.434E4,5.791E3,1.4599E4,1.191E4,1.4307E4,1.733E4,1.1723E4,1.346E4,1.088E4,1.083E3,4.708E3,7.114E3,7.485E3,5.715E3,6.195E3,5.024E3,9.283E3,9.716E3,7.614E3,6.883E3,4.84E3,7.728E3,5.732E3,6.909E3,3.971E3,1.51E2,9.32E2,2.007E3,2.701E3,3.751E3,3.363E3,3.596E3,3.889E3,5.149E3,5.66E2,3.005E3,3.19E3,4.503E3,5.21E2,5.401E3,3.882E3,5.908E3,3.808E3,3.89E3,3.724E3,3.445E3,3.438E3,3.284E3,1.556E3,4.654E3,3.074E3,2.904E3,2.828E3,2.812E3,4.097E3,3.1E3,8.71E2],"tree_param":{"num_deleted":"0","num_feature":"6","num_nodes":"63","size_leaf_vector":"1"}},{"base_weights":[-2.2239386E-4,-7.9506745E0,7.529186E0,-1.3341144E1,-4.059662E0,3.8333347E0,1.2145959E1,-1.704393E1,-1.1162266E1,-6.2659674E0,-2.030856E0,1.9779215E0,5.978481E0,1.0361836E1,1.4668252E1,-2.033311E1,-1.5776618E1,-1.2442427E1,-9.832191E0,-7.312083E0,-5.0870757E0,-3.064882E0,-1.1179713E0,9.671234E-1,2.9976187E0,4.966995E0,7.074603E0,9.111818E0,1.144743E1,1.3799066E1,1.5865271E1,-2.261636E0,-1.8831475E0,-1.6683426E0,-1.4698528E0,-1.3210278E0,-1.1748976E0,-1.0070834E0,-7.8278685E-1,-8.2161635E-1,-6.7255443E-1,-4.109935E-1,-5.460439E-1,-1.9685943E-1,-3.3427793E-1,-1.7218512E-1,-5.344559E-2,5.121206E-2,1.4298758E-1,3.6815226E-1,2.7390978E-1,4.4666076E-1,5.4669565E-1,6.565922E-1,7.6178426E-1,8.583002E-1,9.650397E-1,1.073664E0,1.1930355E0,1.3282816E0,1.4349551E0,1.5521665E0,1.7069008E0],"categories":[],"categories_nodes":[],"categories_segments":[],"categories_sizes":[],"default_left":[0,0,0,0,0,0,0,0,0,0,0,0,0,0,0,0,0,0,0,0,0,0,0,0,0,0,0,0,0,0,0,0,0,0,0,0,0,0,0,0,0,0,0,0,0,0,0,0,0,0,0,0,0,0,0,0,0,0,0,0,0,0,0],"id":6,"left_children":[1,3,5,7,9,11,13,15,17,19,21,23,25,27,29,31,33,35,37,39,41,43,45,47,49,51,53,55,57,59,61,-1,-1,-1,-1,-1,-1,-1,-1,-1,-1,-1,-1,-1,-1,-1,-1,-1,-1,-1,-1,-1,-1,-1,-1,-1,-1,-1,-1,-1,-1,-1,-1],"loss_changes":[5.98634E6,1.02016075E6,8.763215E5,1.643225E5,1.2644344E5,1.13529375E5,1.026075E5,3.115925E4,2.17405E4,1.6652438E4,1.3890523E4,1.5764867E4,1.4633156E4,1.804975E4,9.6215E3,6.7638125E3,5.08875E3,3.326625E3,2.9355625E3,3.74575E3,2.3000469E3,2.0958438E3,2.7542852E3,1.6171621E3,1.3362812E3,1.6977812E3,1.7038438E3,1.6895312E3,2.32825E3,1.36875E3,1.377875E3,0E0,0E0,0E0,0E0,0E0,0E0,0E0,0E0,0E0,0E0,0E0,0E0,0E0,0E0,0E0,0E0,0E0,0E0,0E0,0E0,0E0,0E0,0E0,0E0,0E0,0E0,0E0,0E0,0E0,0E0,0E0,0E0],"parents":[2147483647,0,0,1,1,2,2,3,3,4,4,5,5,6,6,7,7,8,8,9,9,10,10,11,11,12,12,13,13,14,14,15,15,16,16,17,17,18,18,19,19,20,20,21,21,22,22,23,23,24,24,25,25,26,26,27,27,28,28,29,29,30,30],"right_children":[2,4,6,8,10,12,14,16,18,20,22,24,26,28,30,32,34,36,38,40,42,44,46,48,50,52,54,56,58,60,62,-1,-1,-1,-1,-1,-1,-1,-1,-1,-1,-1,-1,-1,-1,-1,-1,-1,-1,-1,-1,-1,-1,-1,-1,-1,-1,-1,-1,-1,-1,-1,-1],"split_conditions":[6.7E1,5E1,8.3E1,3.9E1,5.9E1,7.5E1,9.2E1,3.1E1,4.5E1,5.5E1,6.3E1,7.1E1,7.9E1,8.7E1,9.6E1,2.7E1,3.6E1,4.2E1,1E-1,5.2E1,2.96E1,2.83E1,6.5E1,6.9E1,2.64E1,7.7E1,8.1E1,8.5E1,8.9E1,9.4E1,9.9E1,-2.261636E0,-1.8831475E0,-1.6683426E0,-1.4698528E0,-1.3210278E0,-1.1748976E0,-1.0070834E0,-7.8278685E-1,-8.2161635E-1,-6.7255443E-1,-4.109935E-1,-5.460439E-1,-1.9685943E-1,-3.3427793E-1,-1.7218512E-1,-5.344559E-2,5.121206E-2,1.4298758E-1,3.6815226E-1,2.7390978E-1,4.4666076E-1,5.4669565E-1,6.565922E-1,7.6178426E-1,8.583002E-1,9.650397E-1,1.073664E0,1.1930355E0,1.3282816E0,1.4349551E0,1.5521665E0,1.7069008E0],"split_indices":[1,1,1,1,1,1,1,1,1,1,1,1,1,1,1,1,1,1,2,1,0,0,1,1,0,1,1,1,1,1,1,0,0,0,0,0,0,0,0,0,0,0,0,0,0,0,0,0,0,0,0,0,0,0,0,0,0,0,0,0,0,0,0],"split_type":[0,0,0,0,0,0,0,0,0,0,0,0,0,0,0,0,0,0,0,0,0,0,0,0,0,0,0,0,0,0,0,0,0,0,0,0,0,0,0,0,0,0,0,0,0,0,0,0,0,0,0,0,0,0,0,0,0,0,0,0,0,0,0],"sum_hessian":[1E5,4.864E4,5.136E4,2.039E4,2.825E4,2.8526E4,2.2834E4,7.551E3,1.2839E4,1.3532E4,1.4718E4,1.5297E4,1.3229E4,1.3377E4,9.457E3,2.096E3,5.455E3,6.538E3,6.301E3,7.167E3,6.365E3,6.9E3,7.818E3,7.683E3,7.614E3,6.883E3,6.346E3,6.222E3,7.155E3,5.486E3,3.971E3,8.26E2,1.27E3,2.955E3,2.5E3,3.094E3,3.444E3,5.627E3,6.74E2,2.815E3,4.352E3,1.763E3,4.602E3,1.397E3,5.503E3,3.841E3,3.977E3,3.875E3,3.808E3,2.085E3,5.529E3,3.445E3,3.438E3,3.284E3,3.062E3,3.148E3,3.074E3,2.904E3,4.251E3,2.844E3,2.642E3,3.1E3,8.71E2],"tree_param":{"num_deleted":"0","num_feature":"6","num_nodes":"63","size_leaf_vector":"1"}},{"base_weights":[-2.1461623E-4,-7.155911E0,6.776527E0,-1.2007596E1,-3.653809E0,3.4501152E0,1.0931805E1,-1.5688211E1,-1.0226005E1,-5.8894887E0,-2.0239925E0,1.7801845E0,5.380814E0,9.108401E0,1.2934181E1,-1.9260757E1,-1.4759977E1,-1.1629796E1,-9.051125E0,-7.0712047E0,-5.2401695E0,-2.9574757E0,-1.0062026E0,8.704369E-1,2.6979415E0,4.4704404E0,6.367364E0,8.200929E0,1.0091847E1,1.1970217E1,1.4016491E1,-2.43772E0,-1.8605902E0,-1.5855956E0,-1.3886887E0,-1.2376425E0,-1.0983804E0,-9.793758E-1,-8.362101E-1,-7.294846E-1,-5.008099E-1,-5.4469395E-1,-3.4890097E-1,-3.7026277E-1,-2.4910676E-1,-1.5497082E-1,-4.8102543E-2,4.6092533E-2,1.2869231E-1,2.2958887E-1,3.1171873E-1,5.448929E-1,4.2589268E-1,5.909528E-1,6.8563044E-1,7.7249753E-1,8.685668E-1,1.080419E0,9.824137E-1,1.1412728E0,1.2497759E0,1.3336331E0,1.4661422E0],"categories":[],"categories_nodes":[],"categories_segments":[],"categories_sizes":[],"default_left":[0,0,0,0,0,0,0,0,0,0,0,0,0,0,0,0,0,0,0,0,0,0,0,0,0,0,0,0,0,0,0,0,0,0,0,0,0,0,0,0,0,0,0,0,0,0,0,0,0,0,0,0,0,0,0,0,0,0,0,0,0,0,0],"id":7,"left_children":[1,3,5,7,9,11,13,15,17,19,21,23,25,27,29,31,33,35,37,39,41,43,45,47,49,51,53,55,57,59,61,-1,-1,-1,-1,-1,-1,-1,-1,-1,-1,-1,-1,-1,-1,-1,-1,-1,-1,-1,-1,-1,-1,-1,-1,-1,-1,-1,-1,-1,-1,-1,-1],"loss_changes":[4.849327E6,8.2642025E5,7.098825E5,1.335505E5,1.0292756E5,9.196528E4,8.325625E4,2.1764875E4,2.2560875E4,9.102375E3,1.5522445E4,1.2770371E4,1.1853781E4,1.05864375E4,1.1184375E4,4.1299688E3,4.834125E3,2.882375E3,3.748625E3,1.9110312E3,2.7658125E3,2.9528984E3,2.231084E3,1.309959E3,1.276418E3,1.4015469E3,1.3802812E3,1.3685938E3,9.87125E2,1.5519375E3,2.050375E3,0E0,0E0,0E0,0E0,0E0,0E0,0E0,0E0,0E0,0E0,0E0,0E0,0E0,0E0,0E0,0E0,0E0,0E0,0E0,0E0,0E0,0E0,0E0,0E0,0E0,0E0,0E0,0E0,0E0,0E0,0E0,0E0],"parents":[2147483647,0,0,1,1,2,2,3,3,4,4,5,5,6,6,7,7,8,8,9,9,10,10,11,11,12,12,13,13,14,14,15,15,16,16,17,17,18,18,19,19,20,20,21,21,22,22,23,23,24,24,25,25,26,26,27,27,28,28,29,29,30,30],"right_children":[2,4,6,8,10,12,14,16,18,20,22,24,26,28,30,32,34,36,38,40,42,44,46,48,50,52,54,56,58,60,62,-1,-1,-1,-1,-1,-1,-1,-1,-1,-1,-1,-1,-1,-1,-1,-1,-1,-1,-1,-1,-1,-1,-1,-1,-1,-1,-1,-1,-1,-1,-1,-1],"split_conditions":[6.7E1,5E1,8.3E1,3.8E1,5.8E1,7.5E1,9.1E1,2.9E1,4.4E1,5.3E1,6.3E1,7.1E1,7.9E1,8.7E1,9.5E1,2E1,3.4E1,4.1E1,4.7E1,1E-1,1E-1,6E1,6.5E1,6.9E1,7.3E1,2.51E1,8.1E1,8.5E1,2.39E1,9.3E1,9.7E1,-2.43772E0,-1.8605902E0,-1.5855956E0,-1.3886887E0,-1.2376425E0,-1.0983804E0,-9.793758E-1,-8.362101E-1,-7.294846E-1,-5.008099E-1,-5.4469395E-1,-3.4890097E-1,-3.7026277E-1,-2.4910676E-1,-1.5497082E-1,-4.8102543E-2,4.6092533E-2,1.2869231E-1,2.2958887E-1,3.1171873E-1,5.448929E-1,4.2589268E-1,5.909528E-1,6.8563044E-1,7.7249753E-1,8.685668E-1,1.080419E0,9.824137E-1,1.1412728E0,1.2497759E0,1.3336331E0,1.4661422E0],"split_indices":[1,1,1,1,1,1,1,1,1,1,1,1,1,1,1,1,1,1,1,2,2,1,1,1,1,0,1,1,0,1,1,0,0,0,0,0,0,0,0,0,0,0,0,0,0,0,0,0,0,0,0,0,0,0,0,0,0,0,0,0,0,0,0],"split_type":[0,0,0,0,0,0,0,0,0,0,0,0,0,0,0,0,0,0,0,0,0,0,0,0,0,0,0,0,0,0,0,0,0,0,0,0,0,0,0,0,0,0,0,0,0,0,0,0,0,0,0,0,0,0,0,0,0,0,0,0,0,0,0],"sum_hessian":[1E5,4.864E4,5.136E4,2.039E4,2.825E4,2.8526E4,2.2834E4,6.648E3,1.3742E4,1.191E4,1.634E4,1.5297E4,1.3229E4,1.1954E4,1.088E4,1.367E3,5.281E3,6.257E3,7.485E3,4.22E3,7.69E3,8.522E3,7.818E3,7.683E3,7.614E3,6.883E3,6.346E3,6.222E3,5.732E3,5.761E3,5.119E3,1.51E2,1.216E3,2.334E3,2.947E3,2.894E3,3.363E3,3.596E3,3.889E3,3.805E3,4.15E2,6.876E3,8.14E2,3.278E3,5.244E3,3.841E3,3.977E3,3.875E3,3.808E3,3.89E3,3.724E3,1.219E3,5.664E3,3.284E3,3.062E3,3.148E3,3.074E3,1.555E3,4.177E3,2.812E3,2.949E3,2.502E3,2.617E3],"tree_param":{"num_deleted":"0","num_feature":"6","num_nodes":"63","size_leaf_vector":"1"}},{"base_weights":[-2.189376E-4,-6.4406157E0,6.0991044E0,-1.105836E1,-3.4576848E0,2.9219093E0,9.625865E0,-1.4472685E1,-9.570405E0,-5.723851E0,-1.9939551E0,1.6022122E0,4.6436596E0,7.790125E0,1.1431495E1,-1.7854177E1,-1.36912E1,-1.0844406E1,-8.535429E0,-6.8263445E0,-5.116125E0,-3.2619615E0,-1.2496923E0,7.8341746E-1,2.4282157E0,3.7782018E0,5.326965E0,6.9664307E0,8.658208E0,1.033251E1,1.2369569E1,-2.3775425E0,-1.7352288E0,-1.4616922E0,-1.2998182E0,-1.1089634E0,-8.9057934E-1,-8.7528193E-1,-6.723953E-1,-5.4501635E-1,-7.1056205E-1,-5.313018E-1,-3.4723303E-1,-2.4340354E-1,-3.5542604E-1,-1.692174E-1,-4.3293417E-2,6.774382E-2,2.3690541E-1,3.5247344E-1,2.2904682E-1,4.508438E-1,3.560727E-1,4.9507013E-1,5.7289296E-1,6.540156E-1,7.3835224E-1,8.2605934E-1,9.069535E-1,9.897713E-1,1.0758634E0,1.1825274E0,1.3195841E0],"categories":[],"categories_nodes":[],"categories_segments":[],"categories_sizes":[],"default_left":[0,0,0,0,0,0,0,0,0,0,0,0,0,0,0,0,0,0,0,0,0,0,0,0,0,0,0,0,0,0,0,0,0,0,0,0,0,0,0,0,0,0,0,0,0,0,0,0,0,0,0,0,0,0,0,0,0,0,0,0,0,0,0],"id":8,"left_children":[1,3,5,7,9,11,13,15,17,19,21,23,25,27,29,31,33,35,37,39,41,43,45,47,49,51,53,55,57,59,61,-1,-1,-1,-1,-1,-1,-1,-1,-1,-1,-1,-1,-1,-1,-1,-1,-1,-1,-1,-1,-1,-1,-1,-1,-1,-1,-1,-1,-1,-1,-1,-1],"loss_changes":[3.9282848E6,6.6996275E5,5.7548275E5,9.68405E4,9.80175E4,6.1389375E4,8.059325E4,1.50615E4,1.744175E4,7.73525E3,1.6942484E4,1.0344555E4,6.9131094E3,8.5723125E3,1.2520625E4,2.808875E3,2.831E3,2.7331875E3,2.8324375E3,1.5439531E3,2.4024531E3,1.5984844E3,4.0892344E3,1.2896499E3,1.1421172E3,8.059375E2,9.621406E2,1.0540312E3,8.8575E2,9.414375E2,2.8184375E3,0E0,0E0,0E0,0E0,0E0,0E0,0E0,0E0,0E0,0E0,0E0,0E0,0E0,0E0,0E0,0E0,0E0,0E0,0E0,0E0,0E0,0E0,0E0,0E0,0E0,0E0,0E0,0E0,0E0,0E0,0E0,0E0],"parents":[2147483647,0,0,1,1,2,2,3,3,4,4,5,5,6,6,7,7,8,8,9,9,10,10,11,11,12,12,13,13,14,14,15,15,16,16,17,17,18,18,19,19,20,20,21,21,22,22,23,23,24,24,25,25,26,26,27,27,28,28,29,29,30,30],"right_children":[2,4,6,8,10,12,14,16,18,20,22,24,26,28,30,32,34,36,38,40,42,44,46,48,50,52,54,56,58,60,62,-1,-1,-1,-1,-1,-1,-1,-1,-1,-1,-1,-1,-1,-1,-1,-1,-1,-1,-1,-1,-1,-1,-1,-1,-1,-1,-1,-1,-1,-1,-1,-1],"split_conditions":[6.7E1,4.9E1,8.2E1,3.7E1,5.7E1,7.5E1,9E1,2.8E1,4.3E1,5.2E1,6.1E1,7.1E1,7.8E1,8.6E1,9.4E1,1.8E1,3.3E1,1E-1,1E-1,3.08E1,1E-1,2.9E1,6.5E1,2E-1,2.53E1,2.56E1,8E1,8.4E1,8.8E1,9.2E1,9.7E1,-2.3775425E0,-1.7352288E0,-1.4616922E0,-1.2998182E0,-1.1089634E0,-8.9057934E-1,-8.7528193E-1,-6.723953E-1,-5.4501635E-1,-7.1056205E-1,-5.313018E-1,-3.4723303E-1,-2.4340354E-1,-3.5542604E-1,-1.692174E-1,-4.3293417E-2,6.774382E-2,2.3690541E-1,3.5247344E-1,2.2904682E-1,4.508438E-1,3.560727E-1,4.9507013E-1,5.7289296E-1,6.540156E-1,7.3835224E-1,8.2605934E-1,9.069535E-1,9.897713E-1,1.0758634E0,1.1825274E0,1.3195841E0],"split_indices":[1,1,1,1,1,1,1,1,1,1,1,1,1,1,1,1,1,2,2,0,2,0,1,2,0,0,1,1,1,1,1,0,0,0,0,0,0,0,0,0,0,0,0,0,0,0,0,0,0,0,0,0,0,0,0,0,0,0,0,0,0,0,0],"split_type":[0,0,0,0,0,0,0,0,0,0,0,0,0,0,0,0,0,0,0,0,0,0,0,0,0,0,0,0,0,0,0,0,0,0,0,0,0,0,0,0,0,0,0,0,0,0,0,0,0,0,0,0,0,0,0,0,0,0,0,0,0,0,0],"sum_hessian":[1E5,4.864E4,5.136E4,1.9088E4,2.9552E4,2.702E4,2.434E4,5.791E3,1.3297E4,1.1596E4,1.7956E4,1.5297E4,1.1723E4,1.2072E4,1.2268E4,1.083E3,4.708E3,5.956E3,7.341E3,4.117E3,7.479E3,6.64E3,1.1316E4,7.683E3,7.614E3,5.175E3,6.548E3,6.199E3,5.873E3,5.655E3,6.613E3,8.1E1,1.002E3,2.007E3,2.701E3,5.283E3,6.73E2,6.551E3,7.9E2,6.98E2,3.419E3,6.677E3,8.02E2,1.735E3,4.905E3,7.339E3,3.977E3,7.203E3,4.8E2,8.47E2,6.767E3,1.183E3,3.992E3,3.389E3,3.159E3,3.074E3,3.125E3,2.997E3,2.876E3,2.811E3,2.844E3,3.996E3,2.617E3],"tree_param":{"num_deleted":"0","num_feature":"6","num_nodes":"63","size_leaf_vector":"1"}},{"base_weights":[-2.254966E-4,-5.796828E0,5.489398E0,-1.0200998E1,-3.25709E0,2.6298206E0,8.663595E0,-1.3026603E1,-8.83621E0,-5.293273E0,-1.7946035E0,1.4420489E0,4.1794543E0,7.011373E0,1.0288717E1,-1.6072554E1,-1.2322666E1,-9.957193E0,-8.07327E0,-6.243202E0,-4.6046286E0,-2.7372901E0,-9.6742165E-1,7.051175E-1,2.1854682E0,3.4005384E0,4.7944317E0,6.270014E0,7.7926836E0,9.299624E0,1.113299E1,-2.0543678E0,-1.5520724E0,-1.3399996E0,-1.1831043E0,-1.0155059E0,-8.360619E-1,-8.293586E-1,-6.305582E-1,-6.4382625E-1,-4.458599E-1,-3.7139156E-1,-4.9290285E-1,-2.9085442E-1,-1.2202994E-1,-1.3784818E-1,-3.8964827E-2,3.3822063E-2,1.078283E-1,1.8264224E-1,2.559928E-1,4.0579748E-1,3.2047448E-1,4.455776E-1,5.1562196E-1,5.886354E-1,6.645409E-1,7.4348116E-1,8.1628984E-1,8.9082956E-1,9.6831447E-1,1.0643044E0,1.1876758E0],"categories":[],"categories_nodes":[],"categories_segments":[],"categories_sizes":[],"default_left":[0,0,0,0,0,0,0,0,0,0,0,0,0,0,0,0,0,0,0,0,0,0,0,0,0,0,0,0,0,0,0,0,0,0,0,0,0,0,0,0,0,0,0,0,0,0,0,0,0,0,0,0,0,0,0,0,0,0,0,0,0,0,0],"id":9,"left_children":[1,3,5,7,9,11,13,15,17,19,21,23,25,27,29,31,33,35,37,39,41,43,45,47,49,51,53,55,57,59,61,-1,-1,-1,-1,-1,-1,-1,-1,-1,-1,-1,-1,-1,-1,-1,-1,-1,-1,-1,-1,-1,-1,-1,-1,-1,-1,-1,-1,-1,-1,-1,-1],"loss_changes":[3.18218E6,5.4403775E5,4.6617412E5,6.84895E4,9.186434E4,4.972911E4,6.5285E4,1.22208125E4,1.01816875E4,8.407344E3,1.3999742E4,8.379455E3,5.599672E3,6.94425E3,1.0141875E4,2.3557188E3,2.335625E3,1.4488438E3,2.7303125E3,1.857E3,2.1430312E3,2.1766133E3,2.2713838E3,1.051677E3,1.01914844E3,6.532656E2,7.794219E2,8.538281E2,7.1753125E2,7.62625E2,2.2838125E3,0E0,0E0,0E0,0E0,0E0,0E0,0E0,0E0,0E0,0E0,0E0,0E0,0E0,0E0,0E0,0E0,0E0,0E0,0E0,0E0,0E0,0E0,0E0,0E0,0E0,0E0,0E0,0E0,0E0,0E0,0E0,0E0],"parents":[2147483647,0,0,1,1,2,2,3,3,4,4,5,5,6,6,7,7,8,8,9,9,10,10,11,11,12,12,13,13,14,14,15,15,16,16,17,17,18,18,19,19,20,20,21,21,22,22,23,23,24,24,25,25,26,26,27,27,28,28,29,29,30,30],"right_children":[2,4,6,8,10,12,14,16,18,20,22,24,26,28,30,32,34,36,38,40,42,44,46,48,50,52,54,56,58,60,62,-1,-1,-1,-1,-1,-1,-1,-1,-1,-1,-1,-1,-1,-1,-1,-1,-1,-1,-1,-1,-1,-1,-1,-1,-1,-1,-1,-1,-1,-1,-1,-1],"split_conditions":[6.7E1,4.8E1,8.2E1,3.7E1,5.7E1,7.5E1,9E1,2.8E1,4.2E1,5.2E1,6.2E1,7.1E1,7.8E1,8.6E1,9.4E1,1.9E1,3.2E1,1E-1,1E-1,1E-1,3.02E1,1E-1,6.5E1,6.9E1,7.3E1,2.56E1,8E1,8.4E1,8.8E1,9.2E1,9.7E1,-2.0543678E0,-1.5520724E0,-1.3399996E0,-1.1831043E0,-1.0155059E0,-8.360619E-1,-8.293586E-1,-6.305582E-1,-6.4382625E-1,-4.458599E-1,-3.7139156E-1,-4.9290285E-1,-2.9085442E-1,-1.2202994E-1,-1.3784818E-1,-3.8964827E-2,3.3822063E-2,1.078283E-1,1.8264224E-1,2.559928E-1,4.0579748E-1,3.2047448E-1,4.455776E-1,5.1562196E-1,5.886354E-1,6.645409E-1,7.4348116E-1,8.1628984E-1,8.9082956E-1,9.6831447E-1,1.0643044E0,1.1876758E0],"split_indices":[1,1,1,1,1,1,1,1,1,1,1,1,1,1,1,1,1,2,2,2,0,2,1,1,1,0,1,1,1,1,1,0,0,0,0,0,0,0,0,0,0,0,0,0,0,0,0,0,0,0,0,0,0,0,0,0,0,0,0,0,0,0,0],"split_type":[0,0,0,0,0,0,0,0,0,0,0,0,0,0,0,0,0,0,0,0,0,0,0,0,0,0,0,0,0,0,0,0,0,0,0,0,0,0,0,0,0,0,0,0,0,0,0,0,0,0,0,0,0,0,0,0,0,0,0,0,0,0,0],"sum_hessian":[1E5,4.864E4,5.136E4,1.7789E4,3.0851E4,2.702E4,2.434E4,5.791E3,1.1998E4,1.2895E4,1.7956E4,1.5297E4,1.1723E4,1.2072E4,1.2268E4,1.083E3,4.708E3,4.854E3,7.144E3,5.416E3,7.479E3,8.391E3,9.565E3,7.683E3,7.614E3,5.175E3,6.548E3,6.199E3,5.873E3,5.655E3,6.613E3,1.15E2,9.68E2,1.467E3,3.241E3,4.314E3,5.4E2,6.349E3,7.95E2,4.88E3,5.36E2,2E3,5.479E3,7.539E3,8.52E2,5.588E3,3.977E3,3.875E3,3.808E3,3.89E3,3.724E3,1.183E3,3.992E3,3.389E3,3.159E3,3.074E3,3.125E3,2.997E3,2.876E3,2.811E3,2.844E3,3.996E3,2.617E3],"tree_param":{"num_deleted":"0","num_feature":"6","num_nodes":"63","size_leaf_vector":"1"}},{"base_weights":[-2.310478E-4,-5.434724E0,4.743576E0,-9.18143E0,-3.1216898E0,2.1848664E0,7.7975187E0,-1.1724999E1,-7.9528656E0,-4.962191E0,-1.9306237E0,9.575596E-1,3.581729E0,6.3104663E0,9.2601795E0,-1.4977657E1,-1.1180965E1,-8.800106E0,-7.1163664E0,-3.7208452E0,-5.3207994E0,-2.7921376E0,-1.1681001E0,2.733286E-1,1.6614093E0,2.898967E0,4.3151326E0,5.643212E0,7.013678E0,8.560201E0,1.0235881E1,-1.9397564E0,-1.4471745E0,-1.2175584E0,-1.0648302E0,-9.459756E-1,-8.2462656E-1,-6.1104935E-1,-7.466844E-1,-3.9960596E-1,-2.1354349E-1,-5.574149E-1,-3.5334462E-1,-2.9541308E-1,-1.3776232E-1,-2.9424548E-2,-1.4551745E-1,1.4724943E-2,2.2875476E-1,2.4588807E-1,1.5001196E-1,2.5474143E-1,3.2593015E-1,5.572546E-1,4.23134E-1,5.513917E-1,6.618096E-1,7.419508E-1,6.719489E-1,8.177503E-1,9.102287E-1,-9.4547457E-1,1.0253124E0],"categories":[],"categories_nodes":[],"categories_segments":[],"categories_sizes":[],"default_left":[0,0,0,0,0,0,0,0,0,0,0,0,0,0,0,0,0,0,0,0,0,0,0,0,0,0,0,0,0,0,0,0,0,0,0,0,0,0,0,0,0,0,0,0,0,0,0,0,0,0,0,0,0,0,0,0,0,0,0,0,0,0,0],"id":10,"left_children":[1,3,5,7,9,11,13,15,17,19,21,23,25,27,29,31,33,35,37,39,41,43,45,47,49,51,53,55,57,59,61,-1,-1,-1,-1,-1,-1,-1,-1,-1,-1,-1,-1,-1,-1,-1,-1,-1,-1,-1,-1,-1,-1,-1,-1,-1,-1,-1,-1,-1,-1,-1,-1],"loss_changes":[2.5780702E6,4.0388825E5,4.1721188E5,5.54995E4,6.316622E4,4.9806125E4,5.2884625E4,1.00818125E4,8.44125E3,5.0202812E3,1.1491605E4,7.4483896E3,6.791547E3,5.6253438E3,8.29175E3,1.5685312E3,2.50125E3,2.0983125E3,2.08475E3,1.1001758E3,3.9570156E3,1.8783242E3,2.3285684E3,1.9916553E3,9.7693945E2,8.835039E2,6.664375E2,7.449844E2,6.514375E2,1.408875E3,1.8353125E3,0E0,0E0,0E0,0E0,0E0,0E0,0E0,0E0,0E0,0E0,0E0,0E0,0E0,0E0,0E0,0E0,0E0,0E0,0E0,0E0,0E0,0E0,0E0,0E0,0E0,0E0,0E0,0E0,0E0,0E0,0E0,0E0],"parents":[2147483647,0,0,1,1,2,2,3,3,4,4,5,5,6,6,7,7,8,8,9,9,10,10,11,11,12,12,13,13,14,14,15,15,16,16,17,17,18,18,19,19,20,20,21,21,22,22,23,23,24,24,25,25,26,26,27,27,28,28,29,29,30,30],"right_children":[2,4,6,8,10,12,14,16,18,20,22,24,26,28,30,32,34,36,38,40,42,44,46,48,50,52,54,56,58,60,62,-1,-1,-1,-1,-1,-1,-1,-1,-1,-1,-1,-1,-1,-1,-1,-1,-1,-1,-1,-1,-1,-1,-1,-1,-1,-1,-1,-1,-1,-1,-1,-1],"split_conditions":[6.6E1,4.8E1,8.2E1,3.7E1,5.6E1,7.4E1,9E1,2.7E1,4.3E1,3.06E1,6.1E1,7E1,7.8E1,8.6E1,9.5E1,1.8E1,3.2E1,4E1,3.26E1,6.680639E-1,1E-1,1E-1,2.8E1,2E-1,2.6E1,7.6E1,2.32E1,2E-1,2.48E1,9.3E1,-8.800122E-1,-1.9397564E0,-1.4471745E0,-1.2175584E0,-1.0648302E0,-9.459756E-1,-8.2462656E-1,-6.1104935E-1,-7.466844E-1,-3.9960596E-1,-2.1354349E-1,-5.574149E-1,-3.5334462E-1,-2.9541308E-1,-1.3776232E-1,-2.9424548E-2,-1.4551745E-1,1.4724943E-2,2.2875476E-1,2.4588807E-1,1.5001196E-1,2.5474143E-1,3.2593015E-1,5.572546E-1,4.23134E-1,5.513917E-1,6.618096E-1,7.419508E-1,6.719489E-1,8.177503E-1,9.102287E-1,-9.4547457E-1,1.0253124E0],"split_indices":[1,1,1,1,1,1,1,1,1,0,1,1,1,1,1,1,1,1,0,3,2,2,0,2,0,1,0,2,0,1,3,0,0,0,0,0,0,0,0,0,0,0,0,0,0,0,0,0,0,0,0,0,0,0,0,0,0,0,0,0,0,0,0],"split_type":[0,0,0,0,0,0,0,0,0,0,0,0,0,0,0,0,0,0,0,0,0,0,0,0,0,0,0,0,0,0,0,0,0,0,0,0,0,0,0,0,0,0,0,0,0,0,0,0,0,0,0,0,0,0,0,0,0,0,0,0,0,0,0],"sum_hessian":[1E5,4.6607E4,5.3393E4,1.7789E4,2.8818E4,2.9053E4,2.434E4,5.791E3,1.1998E4,1.1321E4,1.7497E4,1.5466E4,1.3587E4,1.2072E4,1.2268E4,8.26E2,4.965E3,5.956E3,6.042E3,2.54E3,8.781E3,8.214E3,9.283E3,7.843E3,7.623E3,7.039E3,6.548E3,6.199E3,5.873E3,7.149E3,5.119E3,8.1E1,7.45E2,1.724E3,3.241E3,2.711E3,3.245E3,1.566E3,4.476E3,2.163E3,3.77E2,7.689E3,1.092E3,7.369E3,8.45E2,2.296E3,6.987E3,7.382E3,4.61E2,1.28E3,6.343E3,3.567E3,3.472E3,4.05E2,6.143E3,5.479E3,7.2E2,2.458E3,3.415E3,4.2E3,2.949E3,4E0,5.115E3],"tree_param":{"num_deleted":"0","num_feature":"6","num_nodes":"63","size_leaf_vector":"1"}},{"base_weights":[-2.5039056E-4,-4.6979623E0,4.448678E0,-7.71356E0,-2.2480283E0,2.2636387E0,7.1781793E0,-9.904276E0,-6.31251E0,-3.4013972E0,-1.031446E0,1.2965074E0,3.68985E0,6.1225443E0,8.670578E0,-1.2066157E1,-9.19515E0,-7.086729E0,-5.5025673E0,-4.0223236E0,-2.699318E0,-1.4967217E0,-4.6910265E-1,7.1288615E-1,2.057618E0,3.0856886E0,4.1824403E0,5.3811636E0,6.7664084E0,8.128279E0,9.417537E0,-1.5006808E0,-1.1524245E0,-1.0073398E0,-8.7212735E-1,-7.290006E-1,-5.440522E-1,-4.4452897E-1,-5.7716393E-1,-3.2143322E-1,-4.3511567E-1,-2.835672E-1,-1.4825983E-1,-1.6267304E-1,6.0036905E-2,-5.712965E-2,1.8018417E-1,6.656535E-2,3.9311334E-1,3.057922E-1,1.9293222E-1,3.0002367E-1,4.3247113E-1,4.0199962E-1,5.118405E-1,5.0655925E-1,5.702579E-1,6.314729E-1,7.0734084E-1,8.281107E-1,7.1489567E-1,9.2499954E-1,1.0972375E0],"categories":[],"categories_nodes":[],"categories_segments":[],"categories_sizes":[],"default_left":[0,0,0,0,0,0,0,0,0,0,0,0,0,0,0,0,0,0,0,0,0,0,0,0,0,0,0,0,0,0,0,0,0,0,0,0,0,0,0,0,0,0,0,0,0,0,0,0,0,0,0,0,0,0,0,0,0,0,0,0,0,0,0],"id":11,"left_children":[1,3,5,7,9,11,13,15,17,19,21,23,25,27,29,31,33,35,37,39,41,43,45,47,49,51,53,55,57,59,61,-1,-1,-1,-1,-1,-1,-1,-1,-1,-1,-1,-1,-1,-1,-1,-1,-1,-1,-1,-1,-1,-1,-1,-1,-1,-1,-1,-1,-1,-1,-1,-1],"loss_changes":[2.0900202E6,3.5934312E5,3.063042E5,6.68575E4,3.7656125E4,3.934347E4,3.5921875E4,1.29245E4,8.30175E3,5.995078E3,3.417165E3,7.550383E3,3.4175625E3,6.3495312E3,3.7546875E3,3.1687812E3,2.578625E3,2.2348438E3,1.8249062E3,1.9279688E3,1.0690352E3,1.9498047E3,1.3739946E3,1.460293E3,9.40959E2,5.355703E2,9.444297E2,6.023125E2,9.47625E2,7.6203125E2,9.3321875E2,0E0,0E0,0E0,0E0,0E0,0E0,0E0,0E0,0E0,0E0,0E0,0E0,0E0,0E0,0E0,0E0,0E0,0E0,0E0,0E0,0E0,0E0,0E0,0E0,0E0,0E0,0E0,0E0,0E0,0E0,0E0,0E0],"parents":[2147483647,0,0,1,1,2,2,3,3,4,4,5,5,6,6,7,7,8,8,9,9,10,10,11,11,12,12,13,13,14,14,15,15,16,16,17,17,18,18,19,19,20,20,21,21,22,22,23,23,24,24,25,25,26,26,27,27,28,28,29,29,30,30],"right_children":[2,4,6,8,10,12,14,16,18,20,22,24,26,28,30,32,34,36,38,40,42,44,46,48,50,52,54,56,58,60,62,-1,-1,-1,-1,-1,-1,-1,-1,-1,-1,-1,-1,-1,-1,-1,-1,-1,-1,-1,-1,-1,-1,-1,-1,-1,-1,-1,-1,-1,-1,-1,-1],"split_conditions":[6.7E1,5.1E1,8.3E1,4E1,6E1,7.6E1,9.2E1,3.1E1,4.6E1,5.6E1,6.4E1,7.2E1,7.9E1,8.7E1,9.6E1,2.3E1,3.5E1,1E-1,3.15E1,3.06E1,1E-1,2E-1,3E-1,1.2E0,2.51E1,3E-1,1E-1,8.5E1,8.9E1,2.58E1,1E2,-1.5006808E0,-1.1524245E0,-1.0073398E0,-8.7212735E-1,-7.290006E-1,-5.440522E-1,-4.4452897E-1,-5.7716393E-1,-3.2143322E-1,-4.3511567E-1,-2.835672E-1,-1.4825983E-1,-1.6267304E-1,6.0036905E-2,-5.712965E-2,1.8018417E-1,6.656535E-2,3.9311334E-1,3.057922E-1,1.9293222E-1,3.0002367E-1,4.3247113E-1,4.0199962E-1,5.118405E-1,5.0655925E-1,5.702579E-1,6.314729E-1,7.0734084E-1,8.281107E-1,7.1489567E-1,9.2499954E-1,1.0972375E0],"split_indices":[1,1,1,1,1,1,1,1,1,1,1,1,1,1,1,1,1,2,0,0,2,2,2,2,0,2,2,1,1,0,1,0,0,0,0,0,0,0,0,0,0,0,0,0,0,0,0,0,0,0,0,0,0,0,0,0,0,0,0,0,0,0,0],"split_type":[0,0,0,0,0,0,0,0,0,0,0,0,0,0,0,0,0,0,0,0,0,0,0,0,0,0,0,0,0,0,0,0,0,0,0,0,0,0,0,0,0,0,0,0,0,0,0,0,0,0,0,0,0,0,0,0,0,0,0,0,0,0,0],"sum_hessian":[1E5,4.864E4,5.136E4,2.1802E4,2.6838E4,2.8526E4,2.2834E4,8.502E3,1.33E4,1.3776E4,1.3062E4,1.7E4,1.1526E4,1.3377E4,9.457E3,2.096E3,6.406E3,6.796E3,6.504E3,7.308E3,6.468E3,7.147E3,5.915E3,9.623E3,7.377E3,5.18E3,6.346E3,6.222E3,7.155E3,5.486E3,3.971E3,3.22E2,1.774E3,2.238E3,4.168E3,6.046E3,7.5E2,1.323E3,5.181E3,2.117E3,5.191E3,5.815E3,6.53E2,6.73E3,4.17E2,5.661E3,2.54E2,9.485E3,1.38E2,8.36E2,6.541E3,4.849E3,3.31E2,5.412E3,9.34E2,3.148E3,3.074E3,2.904E3,4.251E3,4.739E3,7.47E2,3.591E3,3.8E2],"tree_param":{"num_deleted":"0","num_feature":"6","num_nodes":"63","size_leaf_vector":"1"}},{"base_weights":[-2.2005479E-4,-4.5812025E0,3.6971486E0,-7.441749E0,-2.6874828E0,1.5123756E0,6.180849E0,-9.508462E0,-6.443513E0,-4.013336E0,-1.7222005E0,5.1637995E-1,2.6272054E0,4.989158E0,7.504133E0,-1.219736E1,-9.058758E0,-7.137928E0,-5.7579136E0,-4.593577E0,-3.4804583E0,-2.4294546E0,-1.2184641E0,-3.156829E-2,1.0752215E0,2.089735E0,3.2000206E0,4.3300657E0,5.5402613E0,6.7703E0,8.130541E0,-1.5999085E0,-1.1763127E0,-9.232597E-1,-6.5229267E-1,-7.3257434E-1,-5.654909E-1,-4.8856455E-1,-6.061931E-1,-4.7536752E-1,-3.1298319E-1,-3.6338744E-1,-2.2212827E-1,-1.6660088E-1,-2.6317883E-1,-3.3111762E-2,-1.4455909E-1,1.4354472E-1,-1.566363E-2,9.503183E-2,2.0507537E-1,1.9928978E-1,3.6104915E-1,3.930417E-1,3.0887684E-1,5.464682E-1,4.2392144E-1,5.265273E-1,5.9725636E-1,7.138081E-1,6.5108854E-1,7.846016E-1,8.969515E-1],"categories":[],"categories_nodes":[],"categories_segments":[],"categories_sizes":[],"default_left":[0,0,0,0,0,0,0,0,0,0,0,0,0,0,0,0,0,0,0,0,0,0,0,0,0,0,0,0,0,0,0,0,0,0,0,0,0,0,0,0,0,0,0,0,0,0,0,0,0,0,0,0,0,0,0,0,0,0,0,0,0,0,0],"id":12,"left_children":[1,3,5,7,9,11,13,15,17,19,21,23,25,27,29,31,33,35,37,39,41,43,45,47,49,51,53,55,57,59,61,-1,-1,-1,-1,-1,-1,-1,-1,-1,-1,-1,-1,-1,-1,-1,-1,-1,-1,-1,-1,-1,-1,-1,-1,-1,-1,-1,-1,-1,-1,-1,-1],"loss_changes":[1.693792E6,2.4192825E5,3.0027244E5,3.6640688E4,3.438833E4,3.2690023E4,4.0800688E4,6.89325E3,5.6715E3,3.48475E3,5.538457E3,4.762003E3,4.2702656E3,4.9264688E3,5.58475E3,1.1770469E3,2.128875E3,1.6178125E3,1.5729062E3,1.2545547E3,1.1328281E3,9.948867E2,1.8307148E3,1.4410673E3,9.3615234E2,1.0486992E3,5.3415625E2,6.170703E2,8.505156E2,4.9314062E2,1.5084062E3,0E0,0E0,0E0,0E0,0E0,0E0,0E0,0E0,0E0,0E0,0E0,0E0,0E0,0E0,0E0,0E0,0E0,0E0,0E0,0E0,0E0,0E0,0E0,0E0,0E0,0E0,0E0,0E0,0E0,0E0,0E0,0E0],"parents":[2147483647,0,0,1,1,2,2,3,3,4,4,5,5,6,6,7,7,8,8,9,9,10,10,11,11,12,12,13,13,14,14,15,15,16,16,17,17,18,18,19,19,20,20,21,21,22,22,23,23,24,24,25,25,26,26,27,27,28,28,29,29,30,30],"right_children":[2,4,6,8,10,12,14,16,18,20,22,24,26,28,30,32,34,36,38,40,42,44,46,48,50,52,54,56,58,60,62,-1,-1,-1,-1,-1,-1,-1,-1,-1,-1,-1,-1,-1,-1,-1,-1,-1,-1,-1,-1,-1,-1,-1,-1,-1,-1,-1,-1,-1,-1,-1,-1],"split_conditions":[6.5E1,4.8E1,8.1E1,3.7E1,5.6E1,7.3E1,9E1,2.7E1,4.3E1,5.2E1,6E1,6.9E1,7.7E1,8.5E1,9.4E1,1.8E1,1E-1,1E-1,3.26E1,1E-1,1E-1,2.9E1,2.8E1,2.63E1,1E-1,3E-1,2.44E1,2.29E1,8.8E1,2.4E1,9.8E1,-1.5999085E0,-1.1763127E0,-9.232597E-1,-6.5229267E-1,-7.3257434E-1,-5.654909E-1,-4.8856455E-1,-6.061931E-1,-4.7536752E-1,-3.1298319E-1,-3.6338744E-1,-2.2212827E-1,-1.6660088E-1,-2.6317883E-1,-3.3111762E-2,-1.4455909E-1,1.4354472E-1,-1.566363E-2,9.503183E-2,2.0507537E-1,1.9928978E-1,3.6104915E-1,3.930417E-1,3.0887684E-1,5.464682E-1,4.2392144E-1,5.265273E-1,5.9725636E-1,7.138081E-1,6.5108854E-1,7.846016E-1,8.969515E-1],"split_indices":[1,1,1,1,1,1,1,1,1,1,1,1,1,1,1,1,2,2,0,2,2,0,0,0,2,2,0,0,1,0,1,0,0,0,0,0,0,0,0,0,0,0,0,0,0,0,0,0,0,0,0,0,0,0,0,0,0,0,0,0,0,0,0],"split_type":[0,0,0,0,0,0,0,0,0,0,0,0,0,0,0,0,0,0,0,0,0,0,0,0,0,0,0,0,0,0,0,0,0,0,0,0,0,0,0,0,0,0,0,0,0,0,0,0,0,0,0,0,0,0,0,0,0,0,0,0,0,0,0],"sum_hessian":[1E5,4.4663E4,5.5337E4,1.7789E4,2.6874E4,2.9441E4,2.5896E4,5.791E3,1.1998E4,1.1321E4,1.5553E4,1.555E4,1.3891E4,1.3628E4,1.2268E4,8.26E2,4.965E3,5.956E3,6.042E3,5.416E3,5.905E3,6.468E3,9.085E3,7.852E3,7.698E3,7.169E3,6.722E3,6.21E3,7.418E3,5.655E3,6.613E3,8.1E1,7.45E2,4.644E3,3.21E2,5.283E3,6.73E2,1.566E3,4.476E3,4.88E3,5.36E2,5.262E3,6.43E2,1.357E3,5.111E3,1.852E3,7.233E3,6.16E2,7.236E3,6.826E3,8.72E2,6.742E3,4.27E2,8.84E2,5.838E3,4.56E2,5.754E3,4.542E3,2.876E3,2.328E3,3.327E3,4.946E3,1.667E3],"tree_param":{"num_deleted":"0","num_feature":"6","num_nodes":"63","size_leaf_vector":"1"}},{"base_weights":[-2.1645438E-4,-3.8074105E0,3.6053543E0,-6.2511663E0,-1.8220525E0,1.8341712E0,5.817876E0,-8.039554E0,-5.107425E0,-2.8738747E0,-9.5575994E-1,9.4826454E-1,2.8584166E0,4.8436937E0,6.8876796E0,-1.00912285E1,-7.5238676E0,-5.733339E0,-4.4526296E0,-1.8660713E0,-3.1159403E0,-1.4650335E0,-5.0615597E-1,4.5105037E-1,1.4498595E0,2.3682966E0,3.3895538E0,4.3639154E0,5.3636336E0,6.4515123E0,7.6447353E0,-1.2751429E0,-9.655177E-1,-8.239705E-1,-7.070308E-1,-7.7065945E-2,-5.7856107E-1,-3.4407842E-1,-4.6692833E-1,-2.3462856E-1,-9.6044034E-2,-3.3235285E-1,-1.6331172E-1,-1.5786795E-1,2.83522E-2,1.3983709E-1,-5.9719305E-2,1.7781228E-1,3.7252706E-2,1.3756804E-1,2.8431258E-1,2.2810705E-1,3.6530504E-1,3.2432517E-1,4.2329174E-1,5.417499E-1,4.2824244E-1,5.9157264E-1,5.156736E-1,6.060124E-1,6.7186004E-1,7.8479266E-1,6.642418E-1],"categories":[],"categories_nodes":[],"categories_segments":[],"categories_sizes":[],"default_left":[0,0,0,0,0,0,0,0,0,0,0,0,0,0,0,0,0,0,0,0,0,0,0,0,0,0,0,0,0,0,0,0,0,0,0,0,0,0,0,0,0,0,0,0,0,0,0,0,0,0,0,0,0,0,0,0,0,0,0,0,0,0,0],"id":13,"left_children":[1,3,5,7,9,11,13,15,17,19,21,23,25,27,29,31,33,35,37,39,41,43,45,47,49,51,53,55,57,59,61,-1,-1,-1,-1,-1,-1,-1,-1,-1,-1,-1,-1,-1,-1,-1,-1,-1,-1,-1,-1,-1,-1,-1,-1,-1,-1,-1,-1,-1,-1,-1,-1],"loss_changes":[1.3727382E6,2.3598156E5,2.0126181E5,4.4555938E4,2.4452578E4,2.588229E4,2.3764875E4,8.9204375E3,5.4258438E3,2.9511484E3,3.3694902E3,3.814669E3,3.4360234E3,2.9588438E3,3.5435938E3,1.8546406E3,2.1492188E3,1.7587344E3,1.4099609E3,1.0197544E3,3.0025547E3,1.3717871E3,1.356514E3,8.000574E2,7.8311035E2,7.631133E2,7.6939844E2,5.1109375E2,6.24375E2,6.8165625E2,7.568125E2,0E0,0E0,0E0,0E0,0E0,0E0,0E0,0E0,0E0,0E0,0E0,0E0,0E0,0E0,0E0,0E0,0E0,0E0,0E0,0E0,0E0,0E0,0E0,0E0,0E0,0E0,0E0,0E0,0E0,0E0,0E0,0E0],"parents":[2147483647,0,0,1,1,2,2,3,3,4,4,5,5,6,6,7,7,8,8,9,9,10,10,11,11,12,12,13,13,14,14,15,15,16,16,17,17,18,18,19,19,20,20,21,21,22,22,23,23,24,24,25,25,26,26,27,27,28,28,29,29,30,30],"right_children":[2,4,6,8,10,12,14,16,18,20,22,24,26,28,30,32,34,36,38,40,42,44,46,48,50,52,54,56,58,60,62,-1,-1,-1,-1,-1,-1,-1,-1,-1,-1,-1,-1,-1,-1,-1,-1,-1,-1,-1,-1,-1,-1,-1,-1,-1,-1,-1,-1,-1,-1,-1,-1],"split_conditions":[6.7E1,5.1E1,8.3E1,4E1,5.9E1,7.5E1,9.1E1,3E1,4.6E1,2.96E1,6.3E1,7.1E1,7.9E1,8.7E1,9.6E1,2.2E1,3.5E1,2.93E1,3.13E1,9.453675E-2,1E-1,2E-1,2.61E1,2.55E1,3E-1,7.383264E-1,1E-1,2.25E1,2.39E1,9.3E1,2.47E1,-1.2751429E0,-9.655177E-1,-8.239705E-1,-7.070308E-1,-7.7065945E-2,-5.7856107E-1,-3.4407842E-1,-4.6692833E-1,-2.3462856E-1,-9.6044034E-2,-3.3235285E-1,-1.6331172E-1,-1.5786795E-1,2.83522E-2,1.3983709E-1,-5.9719305E-2,1.7781228E-1,3.7252706E-2,1.3756804E-1,2.8431258E-1,2.2810705E-1,3.6530504E-1,3.2432517E-1,4.2329174E-1,5.417499E-1,4.2824244E-1,5.9157264E-1,5.156736E-1,6.060124E-1,6.7186004E-1,7.8479266E-1,6.642418E-1],"split_indices":[1,1,1,1,1,1,1,1,1,0,1,1,1,1,1,1,1,0,0,3,2,2,0,0,2,4,2,0,0,1,0,0,0,0,0,0,0,0,0,0,0,0,0,0,0,0,0,0,0,0,0,0,0,0,0,0,0,0,0,0,0,0,0],"split_type":[0,0,0,0,0,0,0,0,0,0,0,0,0,0,0,0,0,0,0,0,0,0,0,0,0,0,0,0,0,0,0,0,0,0,0,0,0,0,0,0,0,0,0,0,0,0,0,0,0,0,0,0,0,0,0,0,0,0,0,0,0,0,0],"sum_hessian":[1E5,4.864E4,5.136E4,2.1802E4,2.6838E4,2.8526E4,2.2834E4,8.502E3,1.33E4,1.212E4,1.4718E4,1.5297E4,1.3229E4,1.1954E4,1.088E4,1.704E3,6.798E3,6.796E3,6.504E3,2.349E3,9.771E3,6.9E3,7.818E3,7.683E3,7.614E3,6.883E3,6.346E3,6.222E3,5.732E3,6.909E3,3.971E3,2.36E2,1.468E3,2.63E3,4.168E3,7.1E1,6.725E3,1.15E3,5.354E3,1.534E3,8.15E2,8.57E3,1.201E3,6.479E3,4.21E2,3.56E2,7.462E3,4.28E2,7.255E3,7.231E3,3.83E2,6.448E3,4.35E2,5.412E3,9.34E2,4.42E2,5.78E3,1.555E3,4.177E3,2.812E3,4.097E3,3.296E3,6.75E2],"tree_param":{"num_deleted":"0","num_feature":"6","num_nodes":"63","size_leaf_vector":"1"}},{"base_weights":[-1.879107E-4,-3.7130659E0,2.996523E0,-6.1801295E0,-2.2673676E0,1.2252413E0,5.0101566E0,-7.887642E0,-5.4262624E0,-3.3528812E0,-1.3871698E0,3.0103335E-1,2.0186338E0,4.045067E0,6.0818167E0,-9.928274E0,-7.4864373E0,-6.143845E0,-4.9623537E0,-2.3916945E0,-3.606062E0,-1.9453528E0,-9.896051E-1,-1.5647642E-1,6.5716726E-1,1.5953717E0,2.5925045E0,3.617513E0,4.608918E0,5.6987166E0,6.8806295E0,-1.3159094E0,-9.5598346E-1,-7.6553744E-1,-4.8906904E-1,-2.073717E-1,-6.208741E-1,-2.6113365E-2,-5.019056E-1,-2.5993475E-1,-6.310996E-2,-3.816407E-1,-2.1109317E-1,-2.0314024E-1,-6.134184E-2,-1.0795971E-1,1.0305742E-1,-2.3764677E-2,1.855539E-1,6.0897183E-2,4.080573E-1,1.5125643E-1,2.9647645E-1,3.2394373E-1,2.4940069E-1,3.3838683E-1,3.962488E-1,4.8367068E-1,4.2398778E-1,5.3577095E-1,6.0469043E-1,6.6479236E-1,7.7002865E-1],"categories":[],"categories_nodes":[],"categories_segments":[],"categories_sizes":[],"default_left":[0,0,0,0,0,0,0,0,0,0,0,0,0,0,0,0,0,0,0,0,0,0,0,0,0,0,0,0,0,0,0,0,0,0,0,0,0,0,0,0,0,0,0,0,0,0,0,0,0,0,0,0,0,0,0,0,0,0,0,0,0,0,0],"id":14,"left_children":[1,3,5,7,9,11,13,15,17,19,21,23,25,27,29,31,33,35,37,39,41,43,45,47,49,51,53,55,57,59,61,-1,-1,-1,-1,-1,-1,-1,-1,-1,-1,-1,-1,-1,-1,-1,-1,-1,-1,-1,-1,-1,-1,-1,-1,-1,-1,-1,-1,-1,-1,-1,-1],"loss_changes":[1.1126644E6,1.5928594E5,1.973686E5,2.1199188E4,2.6904156E4,2.1588023E4,2.6759375E4,4.0617812E3,3.7814688E3,3.0600625E3,3.4497207E3,2.2161785E3,3.8438555E3,3.2689531E3,3.715375E3,8.586406E2,1.8157344E3,1.173625E3,1.854E3,9.6059766E2,3.1302734E3,7.401836E2,1.6529453E3,9.7282434E2,1.2593782E3,1.0296895E3,4.203164E2,6.117422E2,4.7327344E2,9.52875E2,7.064219E2,0E0,0E0,0E0,0E0,0E0,0E0,0E0,0E0,0E0,0E0,0E0,0E0,0E0,0E0,0E0,0E0,0E0,0E0,0E0,0E0,0E0,0E0,0E0,0E0,0E0,0E0,0E0,0E0,0E0,0E0,0E0,0E0],"parents":[2147483647,0,0,1,1,2,2,3,3,4,4,5,5,6,6,7,7,8,8,9,9,10,10,11,11,12,12,13,13,14,14,15,15,16,16,17,17,18,18,19,19,20,20,21,21,22,22,23,23,24,24,25,25,26,26,27,27,28,28,29,29,30,30],"right_children":[2,4,6,8,10,12,14,16,18,20,22,24,26,28,30,32,34,36,38,40,42,44,46,48,50,52,54,56,58,60,62,-1,-1,-1,-1,-1,-1,-1,-1,-1,-1,-1,-1,-1,-1,-1,-1,-1,-1,-1,-1,-1,-1,-1,-1,-1,-1,-1,-1,-1,-1,-1,-1],"split_conditions":[6.5E1,4.7E1,8.1E1,3.6E1,5.6E1,7.2E1,9E1,2.7E1,4.1E1,3.06E1,6E1,6.8E1,7.7E1,8.6E1,9.6E1,1.8E1,1E-1,3.11E1,2.93E1,7.9094565E-1,1E-1,2E-1,3E-1,7.498264E-1,1.4E0,3E-1,2.44E1,8.4E1,2.56E1,9.3E1,9.9E1,-1.3159094E0,-9.5598346E-1,-7.6553744E-1,-4.8906904E-1,-2.073717E-1,-6.208741E-1,-2.6113365E-2,-5.019056E-1,-2.5993475E-1,-6.310996E-2,-3.816407E-1,-2.1109317E-1,-2.0314024E-1,-6.134184E-2,-1.0795971E-1,1.0305742E-1,-2.3764677E-2,1.855539E-1,6.0897183E-2,4.080573E-1,1.5125643E-1,2.9647645E-1,3.2394373E-1,2.4940069E-1,3.3838683E-1,3.962488E-1,4.8367068E-1,4.2398778E-1,5.3577095E-1,6.0469043E-1,6.6479236E-1,7.7002865E-1],"split_indices":[1,1,1,1,1,1,1,1,1,0,1,1,1,1,1,1,2,0,0,3,2,2,2,4,2,2,0,1,0,1,1,0,0,0,0,0,0,0,0,0,0,0,0,0,0,0,0,0,0,0,0,0,0,0,0,0,0,0,0,0,0,0,0],"split_type":[0,0,0,0,0,0,0,0,0,0,0,0,0,0,0,0,0,0,0,0,0,0,0,0,0,0,0,0,0,0,0,0,0,0,0,0,0,0,0,0,0,0,0,0,0,0,0,0,0,0,0,0,0,0,0,0,0,0,0,0,0,0,0],"sum_hessian":[1E5,4.4663E4,5.5337E4,1.6501E4,2.8162E4,2.9441E4,2.5896E4,5.051E3,1.145E4,1.2609E4,1.5553E4,1.36E4,1.5841E4,1.3628E4,1.2268E4,8.26E2,4.225E3,4.491E3,6.959E3,2.631E3,9.978E3,6.468E3,9.085E3,5.953E3,7.647E3,9.119E3,6.722E3,7.755E3,5.873E3,8.297E3,3.971E3,8.1E1,7.45E2,3.965E3,2.6E2,7.1E1,4.42E3,8.3E1,6.876E3,2.353E3,2.78E2,8.746E3,1.232E3,6.075E3,3.93E2,8.698E3,3.87E2,5.723E3,2.3E2,7.542E3,1.05E2,8.601E3,5.18E2,8.84E2,5.838E3,4.63E3,3.125E3,3.624E3,2.249E3,4.2E3,4.097E3,3.1E3,8.71E2],"tree_param":{"num_deleted":"0","num_feature":"6","num_nodes":"63","size_leaf_vector":"1"}},{"base_weights":[-1.7086622E-4,-3.341895E0,2.6969771E0,-5.433171E0,-1.9574435E0,1.102775E0,4.5093026E0,-6.797596E0,-4.618461E0,-2.8255496E0,-1.1565096E0,3.726349E-1,1.9200299E0,3.5371056E0,5.373378E0,-8.440686E0,-6.3707604E0,-5.045117E0,-4.070942E0,-3.2731767E0,-2.322416E0,-4.537752E-1,-1.3989141E0,6.0162053E-2,9.031885E-1,1.5322168E0,2.3333423E0,3.156662E0,3.9317193E0,4.848269E0,5.9359417E0,-1.0693226E0,-8.068296E-1,-8.015733E-2,-6.4389145E-1,-5.2145296E-1,-3.6990288E-1,-4.2411706E-1,-2.6701012E-1,-2.3768067E-1,-3.4631154E-1,-2.4580412E-1,-1.1866865E-1,-7.6915756E-2,5.7054143E-2,-1.5828888E-1,-1.3412549E-2,-3.7619756E-3,1.6125976E-1,1.5858984E-1,7.5954966E-2,2.527567E-1,1.4362817E-1,2.6880357E-1,2.1745291E-1,3.608644E-1,2.9728448E-1,3.809158E-1,4.711369E-1,5.1400894E-1,4.617457E-1,6.150133E-1,5.150265E-1],"categories":[],"categories_nodes":[],"categories_segments":[],"categories_sizes":[],"default_left":[0,0,0,0,0,0,0,0,0,0,0,0,0,0,0,0,0,0,0,0,0,0,0,0,0,0,0,0,0,0,0,0,0,0,0,0,0,0,0,0,0,0,0,0,0,0,0,0,0,0,0,0,0,0,0,0,0,0,0,0,0,0,0],"id":15,"left_children":[1,3,5,7,9,11,13,15,17,19,21,23,25,27,29,31,33,35,37,39,41,43,45,47,49,51,53,55,57,59,61,-1,-1,-1,-1,-1,-1,-1,-1,-1,-1,-1,-1,-1,-1,-1,-1,-1,-1,-1,-1,-1,-1,-1,-1,-1,-1,-1,-1,-1,-1,-1,-1],"loss_changes":[9.013305E5,1.2930378E5,1.5987831E5,1.9744125E4,1.8682797E4,1.7567637E4,2.1735812E4,4.6093438E3,2.5822656E3,2.8967812E3,2.3808008E3,2.5780464E3,2.2231406E3,1.8175156E3,4.0209688E3,1.0612344E3,1.9996719E3,1.4078125E3,1.1535703E3,1.15325E3,9.3283984E2,1.1592242E3,2.4183594E3,1.4858784E3,5.640342E2,6.810254E2,3.7286328E2,5.0528906E2,5.533672E2,4.5421875E2,1.0813594E3,0E0,0E0,0E0,0E0,0E0,0E0,0E0,0E0,0E0,0E0,0E0,0E0,0E0,0E0,0E0,0E0,0E0,0E0,0E0,0E0,0E0,0E0,0E0,0E0,0E0,0E0,0E0,0E0,0E0,0E0,0E0,0E0],"parents":[2147483647,0,0,1,1,2,2,3,3,4,4,5,5,6,6,7,7,8,8,9,9,10,10,11,11,12,12,13,13,14,14,15,15,16,16,17,17,18,18,19,19,20,20,21,21,22,22,23,23,24,24,25,25,26,26,27,27,28,28,29,29,30,30],"right_children":[2,4,6,8,10,12,14,16,18,20,22,24,26,28,30,32,34,36,38,40,42,44,46,48,50,52,54,56,58,60,62,-1,-1,-1,-1,-1,-1,-1,-1,-1,-1,-1,-1,-1,-1,-1,-1,-1,-1,-1,-1,-1,-1,-1,-1,-1,-1,-1,-1,-1,-1,-1,-1],"split_conditions":[6.5E1,4.8E1,8.1E1,3.8E1,5.7E1,7.3E1,8.9E1,2.9E1,4.4E1,5.3E1,2.85E1,7E1,7.7E1,8.5E1,9.4E1,2.1E1,3.11E1,1E-1,1E-1,3.08E1,1E-1,1.7976658E-1,1E-1,2E-1,2.62E1,2.46E1,2.56E1,2.5E1,2E-1,2.42E1,2.48E1,-1.0693226E0,-8.068296E-1,-8.015733E-2,-6.4389145E-1,-5.2145296E-1,-3.6990288E-1,-4.2411706E-1,-2.6701012E-1,-2.3768067E-1,-3.4631154E-1,-2.4580412E-1,-1.1866865E-1,-7.6915756E-2,5.7054143E-2,-1.5828888E-1,-1.3412549E-2,-3.7619756E-3,1.6125976E-1,1.5858984E-1,7.5954966E-2,2.527567E-1,1.4362817E-1,2.6880357E-1,2.1745291E-1,3.608644E-1,2.9728448E-1,3.809158E-1,4.711369E-1,5.1400894E-1,4.617457E-1,6.150133E-1,5.150265E-1],"split_indices":[1,1,1,1,1,1,1,1,1,1,0,1,1,1,1,1,0,2,2,0,2,3,2,2,0,0,0,0,2,0,0,0,0,0,0,0,0,0,0,0,0,0,0,0,0,0,0,0,0,0,0,0,0,0,0,0,0,0,0,0,0,0,0],"split_type":[0,0,0,0,0,0,0,0,0,0,0,0,0,0,0,0,0,0,0,0,0,0,0,0,0,0,0,0,0,0,0,0,0,0,0,0,0,0,0,0,0,0,0,0,0,0,0,0,0,0,0,0,0,0,0,0,0,0,0,0,0,0,0],"sum_hessian":[1E5,4.4663E4,5.5337E4,1.7789E4,2.6874E4,2.9441E4,2.5896E4,6.648E3,1.1141E4,1.2895E4,1.3979E4,1.555E4,1.3891E4,1.2188E4,1.3708E4,1.367E3,5.281E3,6.257E3,4.884E3,6.821E3,6.074E3,3.586E3,1.0393E4,9.787E3,5.763E3,7.169E3,6.722E3,6.21E3,5.978E3,7.095E3,6.613E3,1.9E2,1.177E3,6.4E1,5.217E3,5.555E3,7.02E2,4.353E3,5.31E2,1.195E3,5.626E3,5.425E3,6.49E2,2.742E3,8.44E2,9.073E3,1.32E3,9.208E3,5.79E2,1E3,4.763E3,6.28E2,6.541E3,2.074E3,4.648E3,1.79E3,4.42E3,5.171E3,8.07E2,3.124E3,3.971E3,5.191E3,1.422E3],"tree_param":{"num_deleted":"0","num_feature":"6","num_nodes":"63","size_leaf_vector":"1"}},{"base_weights":[-1.5871834E-4,-2.6712646E0,2.737583E0,-4.5695796E0,-1.2348031E0,1.5199678E0,4.3473716E0,-5.876922E0,-3.7334847E0,-2.0038083E0,-5.302471E-1,8.701957E-1,2.2653902E0,3.712392E0,5.139797E0,-7.0744114E0,-5.362783E0,-4.2682137E0,-3.3456442E0,-2.474465E0,-1.6658497E0,2.2674132E-2,-8.4559405E-1,5.436282E-1,1.208596E0,1.9166828E0,2.648862E0,3.370017E0,4.0802984E0,4.8910866E0,5.7877316E0,-8.6041373E-1,-6.686072E-1,-5.506738E-1,-3.9527392E-1,-4.4343773E-1,-2.965156E-1,-3.4891164E-1,-2.1167646E-1,-1.9063976E-1,-2.6949808E-1,-1.1691635E-1,-1.8877722E-1,-2.3474803E-2,8.324234E-2,-1.0529417E-1,4.1986864E-2,5.0110977E-2,3.5641292E-1,2.0376272E-1,1.102343E-1,1.8318757E-1,2.80686E-1,2.470675E-1,3.2037085E-1,3.263797E-1,4.0829393E-1,4.7297105E-1,3.9895496E-1,4.9949285E-1,4.1150042E-1,5.60809E-1,6.827761E-1],"categories":[],"categories_nodes":[],"categories_segments":[],"categories_sizes":[],"default_left":[0,0,0,0,0,0,0,0,0,0,0,0,0,0,0,0,0,0,0,0,0,0,0,0,0,0,0,0,0,0,0,0,0,0,0,0,0,0,0,0,0,0,0,0,0,0,0,0,0,0,0,0,0,0,0,0,0,0,0,0,0,0,0],"id":16,"left_children":[1,3,5,7,9,11,13,15,17,19,21,23,25,27,29,31,33,35,37,39,41,43,45,47,49,51,53,55,57,59,61,-1,-1,-1,-1,-1,-1,-1,-1,-1,-1,-1,-1,-1,-1,-1,-1,-1,-1,-1,-1,-1,-1,-1,-1,-1,-1,-1,-1,-1,-1,-1,-1],"loss_changes":[7.312944E5,1.3801966E5,9.679309E4,2.3810125E4,1.5611113E4,1.3617598E4,1.06819375E4,5.197125E3,2.7442188E3,2.1872773E3,2.62225E3,1.6597646E3,1.7459766E3,1.4738594E3,1.4958281E3,1.4579062E3,1.1865938E3,1.1967656E3,1.3526797E3,7.1590625E2,8.820254E2,1.1389436E3,2.5133574E3,9.804238E2,6.476592E2,5.1289453E2,6.0841797E2,4.5035156E2,3.1634375E2,5.3075E2,4.5083594E2,0E0,0E0,0E0,0E0,0E0,0E0,0E0,0E0,0E0,0E0,0E0,0E0,0E0,0E0,0E0,0E0,0E0,0E0,0E0,0E0,0E0,0E0,0E0,0E0,0E0,0E0,0E0,0E0,0E0,0E0,0E0,0E0],"parents":[2147483647,0,0,1,1,2,2,3,3,4,4,5,5,6,6,7,7,8,8,9,9,10,10,11,11,12,12,13,13,14,14,15,15,16,16,17,17,18,18,19,19,20,20,21,21,22,22,23,23,24,24,25,25,26,26,27,27,28,28,29,29,30,30],"right_children":[2,4,6,8,10,12,14,16,18,20,22,24,26,28,30,32,34,36,38,40,42,44,46,48,50,52,54,56,58,60,62,-1,-1,-1,-1,-1,-1,-1,-1,-1,-1,-1,-1,-1,-1,-1,-1,-1,-1,-1,-1,-1,-1,-1,-1,-1,-1,-1,-1,-1,-1,-1,-1],"split_conditions":[6.8E1,5.1E1,8.4E1,4E1,6E1,7.6E1,9.2E1,3.2E1,4.5E1,5.5E1,2.83E1,7.2E1,8E1,8.8E1,9.7E1,2.5E1,1E-1,1E-1,1E-1,3.07E1,2.96E1,2.1352091E-1,1E-1,1.4E0,2.51E1,2E-1,-4.2889193E-1,2E-1,2.26E1,2.58E1,1E2,-8.6041373E-1,-6.686072E-1,-5.506738E-1,-3.9527392E-1,-4.4343773E-1,-2.965156E-1,-3.4891164E-1,-2.1167646E-1,-1.9063976E-1,-2.6949808E-1,-1.1691635E-1,-1.8877722E-1,-2.3474803E-2,8.324234E-2,-1.0529417E-1,4.1986864E-2,5.0110977E-2,3.5641292E-1,2.0376272E-1,1.102343E-1,1.8318757E-1,2.80686E-1,2.470675E-1,3.2037085E-1,3.263797E-1,4.0829393E-1,4.7297105E-1,3.9895496E-1,4.9949285E-1,4.1150042E-1,5.60809E-1,6.827761E-1],"split_indices":[1,1,1,1,1,1,1,1,1,1,0,1,1,1,1,1,2,2,2,0,0,3,2,2,0,2,4,2,0,0,1,0,0,0,0,0,0,0,0,0,0,0,0,0,0,0,0,0,0,0,0,0,0,0,0,0,0,0,0,0,0,0,0],"split_type":[0,0,0,0,0,0,0,0,0,0,0,0,0,0,0,0,0,0,0,0,0,0,0,0,0,0,0,0,0,0,0,0,0,0,0,0,0,0,0,0,0,0,0,0,0,0,0,0,0,0,0,0,0,0,0,0,0,0,0,0,0,0,0],"sum_hessian":[1E5,5.0616E4,4.9384E4,2.1802E4,2.8814E4,2.8118E4,2.1266E4,8.502E3,1.33E4,1.3776E4,1.5038E4,1.5024E4,1.3094E4,1.1809E4,9.457E3,2.55E3,5.952E3,5.587E3,7.713E3,5.755E3,8.021E3,5.462E3,9.576E3,7.647E3,7.377E3,6.861E3,6.233E3,6.122E3,5.687E3,6.84E3,2.617E3,5.12E2,2.038E3,5.398E3,5.54E2,4.953E3,6.34E2,6.905E3,8.08E2,1.612E3,4.143E3,2.479E3,5.542E3,4.145E3,1.317E3,8.228E3,1.348E3,7.542E3,1.05E2,8.36E2,6.541E3,6.267E3,5.94E2,4.722E3,1.511E3,5.333E3,7.89E2,6.91E2,4.996E3,6.028E3,8.12E2,2.237E3,3.8E2],"tree_param":{"num_deleted":"0","num_feature":"6","num_nodes":"63","size_leaf_vector":"1"}},{"base_weights":[-1.3365307E-4,-2.7103124E0,2.187286E0,-4.512717E0,-1.6541044E0,8.969157E-1,3.6542084E0,-6.1014814E0,-4.0528994E0,-2.441236E0,-1.0158516E0,3.0855137E-1,1.5554787E0,3.0189385E0,4.5306163E0,-1.9360659E-1,-6.1790357E0,-4.5706725E0,-3.6177151E0,-1.6951605E0,-2.6377716E0,-1.3636277E0,-6.2647873E-1,1.0482503E0,1.5438032E-1,1.3083279E0,1.9957123E0,2.6312854E0,3.4325461E0,4.23507E0,5.0436296E0,4.2188293E-1,-1.2918754E-1,-5.8106244E-1,-7.590658E-1,-4.7046682E-1,-3.356197E-1,6.1399687E-2,-3.6688778E-1,-1.8848364E-1,-8.873724E-3,-2.810901E-1,-1.4074403E-1,-7.641064E-2,-1.5498577E-1,-7.007784E-2,1.11942194E-1,5.901863E-1,9.892674E-2,-1.3533701E-2,5.0239127E-2,2.3156367E-1,1.2436266E-1,1.9808564E-1,7.137653E-1,2.5366822E-1,3.3839667E-1,3.8903394E-1,3.2790658E-1,4.3524608E-1,3.6619258E-1,-6.945837E-1,5.054442E-1],"categories":[],"categories_nodes":[],"categories_segments":[],"categories_sizes":[],"default_left":[0,0,0,0,0,0,0,0,0,0,0,0,0,0,0,0,0,0,0,0,0,0,0,0,0,0,0,0,0,0,0,0,0,0,0,0,0,0,0,0,0,0,0,0,0,0,0,0,0,0,0,0,0,0,0,0,0,0,0,0,0,0,0],"id":17,"left_children":[1,3,5,7,9,11,13,15,17,19,21,23,25,27,29,31,33,35,37,39,41,43,45,47,49,51,53,55,57,59,61,-1,-1,-1,-1,-1,-1,-1,-1,-1,-1,-1,-1,-1,-1,-1,-1,-1,-1,-1,-1,-1,-1,-1,-1,-1,-1,-1,-1,-1,-1,-1,-1],"loss_changes":[5.928416E5,8.502E4,1.0474456E5,1.20306875E4,1.4146297E4,1.1407557E4,1.4404594E4,1.695E3,2.867875E3,1.8445469E3,2.1053848E3,1.7732767E3,1.5088945E3,2.3987344E3,1.6284062E3,2.429062E2,1.8562031E3,9.3491406E2,1.509125E3,8.018032E2,2.1216328E3,9.1600977E2,9.5292773E2,7.619656E2,1.2976833E3,5.771699E2,3.6727148E2,5.436875E2,4.974922E2,4.4898438E2,5.5002344E2,0E0,0E0,0E0,0E0,0E0,0E0,0E0,0E0,0E0,0E0,0E0,0E0,0E0,0E0,0E0,0E0,0E0,0E0,0E0,0E0,0E0,0E0,0E0,0E0,0E0,0E0,0E0,0E0,0E0,0E0,0E0,0E0],"parents":[2147483647,0,0,1,1,2,2,3,3,4,4,5,5,6,6,7,7,8,8,9,9,10,10,11,11,12,12,13,13,14,14,15,15,16,16,17,17,18,18,19,19,20,20,21,21,22,22,23,23,24,24,25,25,26,26,27,27,28,28,29,29,30,30],"right_children":[2,4,6,8,10,12,14,16,18,20,22,24,26,28,30,32,34,36,38,40,42,44,46,48,50,52,54,56,58,60,62,-1,-1,-1,-1,-1,-1,-1,-1,-1,-1,-1,-1,-1,-1,-1,-1,-1,-1,-1,-1,-1,-1,-1,-1,-1,-1,-1,-1,-1,-1,-1,-1],"split_conditions":[6.5E1,4.7E1,8.1E1,3.4E1,5.6E1,7.3E1,9.1E1,3.15E1,4.1E1,3.06E1,6.1E1,2.66E1,7.8E1,8.6E1,9.6E1,2.94E1,3.872228E-2,1E-1,2.93E1,7.9094565E-1,1E-1,2.9E1,3E-1,-8.800122E-1,6.9E1,2.41E1,6.8E0,2E-1,2.39E1,2.57E1,-8.800122E-1,4.2188293E-1,-1.2918754E-1,-5.8106244E-1,-7.590658E-1,-4.7046682E-1,-3.356197E-1,6.1399687E-2,-3.6688778E-1,-1.8848364E-1,-8.873724E-3,-2.810901E-1,-1.4074403E-1,-7.641064E-2,-1.5498577E-1,-7.007784E-2,1.11942194E-1,5.901863E-1,9.892674E-2,-1.3533701E-2,5.0239127E-2,2.3156367E-1,1.2436266E-1,1.9808564E-1,7.137653E-1,2.5366822E-1,3.3839667E-1,3.8903394E-1,3.2790658E-1,4.3524608E-1,3.6619258E-1,-6.945837E-1,5.054442E-1],"split_indices":[1,1,1,1,1,1,1,0,1,0,1,0,1,1,1,0,4,2,0,3,2,0,2,3,1,0,2,2,0,0,3,0,0,0,0,0,0,0,0,0,0,0,0,0,0,0,0,0,0,0,0,0,0,0,0,0,0,0,0,0,0,0,0],"split_type":[0,0,0,0,0,0,0,0,0,0,0,0,0,0,0,0,0,0,0,0,0,0,0,0,0,0,0,0,0,0,0,0,0,0,0,0,0,0,0,0,0,0,0,0,0,0,0,0,0,0,0,0,0,0,0,0,0,0,0,0,0,0,0],"sum_hessian":[1E5,4.4663E4,5.5337E4,1.6501E4,2.8162E4,2.9441E4,2.5896E4,3.701E3,1.28E4,1.2609E4,1.5553E4,1.555E4,1.3891E4,1.5016E4,1.088E4,4.8E1,3.653E3,5.841E3,6.959E3,2.631E3,9.978E3,8.214E3,7.339E3,2.681E3,1.2869E4,8.899E3,4.992E3,7.755E3,7.261E3,6.909E3,3.971E3,9E0,3.9E1,2.901E3,7.52E2,5.258E3,5.83E2,8.3E1,6.876E3,2.353E3,2.78E2,8.746E3,1.232E3,1.948E3,6.266E3,7.04E3,2.99E2,3.1E1,2.65E3,7.023E3,5.846E3,5.35E2,8.364E3,4.979E3,1.3E1,6.893E3,8.62E2,1.817E3,5.444E3,5.729E3,1.18E3,3E0,3.968E3],"tree_param":{"num_deleted":"0","num_feature":"6","num_nodes":"63","size_leaf_vector":"1"}},{"base_weights":[-1.1076999E-4,-2.2528183E0,2.1332967E0,-3.7982361E0,-1.1372871E0,1.085355E0,3.4423618E0,-4.869487E0,-3.1678715E0,-1.842958E0,-6.22852E-1,5.596609E-1,1.6931392E0,2.9291809E0,4.167874E0,-6.056974E0,-4.522439E0,-2.5139806E0,-3.42453E0,-1.9502804E0,-9.094127E-1,-6.723547E-2,-8.531147E-1,1.8381736E-1,7.897902E-1,1.405588E0,2.0047526E0,2.5766954E0,3.2352998E0,4.368523E0,3.6158082E0,-5.557479E-1,-7.087464E-1,-1.4408858E-1,-4.5972148E-1,-4.144725E-2,-2.6667982E-1,-3.6104867E-1,-2.1633454E-1,-1.3541229E-1,-2.1688128E-1,-5.943607E-2,-2.4910252E-1,-3.1245012E-2,7.3075175E-2,-1.0213684E-1,2.564607E-2,4.6677908E-1,1.5818058E-2,1.2073424E-1,6.470509E-2,1.3313237E-1,2.5008288E-1,1.8771799E-1,2.741166E-1,3.473761E-1,2.5075075E-1,3.8654897E-1,3.156711E-1,4.2366114E-1,5.346581E-1,3.6370978E-1,4.7373297E-3],"categories":[],"categories_nodes":[],"categories_segments":[],"categories_sizes":[],"default_left":[0,0,0,0,0,0,0,0,0,0,0,0,0,0,0,0,0,0,0,0,0,0,0,0,0,0,0,0,0,0,0,0,0,0,0,0,0,0,0,0,0,0,0,0,0,0,0,0,0,0,0,0,0,0,0,0,0,0,0,0,0,0,0],"id":18,"left_children":[1,3,5,7,9,11,13,15,17,19,21,23,25,27,29,31,33,35,37,39,41,43,45,47,49,51,53,55,57,59,61,-1,-1,-1,-1,-1,-1,-1,-1,-1,-1,-1,-1,-1,-1,-1,-1,-1,-1,-1,-1,-1,-1,-1,-1,-1,-1,-1,-1,-1,-1,-1,-1],"loss_changes":[4.8060394E5,8.385091E4,7.0454516E4,1.37541875E4,1.0254582E4,9.113672E3,8.4896875E3,3.0849062E3,2.1462969E3,1.1915938E3,2.0905747E3,1.3230186E3,1.1826562E3,1.4351797E3,1.031875E3,8.3821484E2,1.3409141E3,1.1613047E3,2.154039E3,1.388707E3,6.114164E2,9.37331E2,2.1570928E3,6.6726306E2,5.6471436E2,5.565957E2,5.9113086E2,3.7753125E2,3.4220312E2,8.717031E2,1.9180469E2,0E0,0E0,0E0,0E0,0E0,0E0,0E0,0E0,0E0,0E0,0E0,0E0,0E0,0E0,0E0,0E0,0E0,0E0,0E0,0E0,0E0,0E0,0E0,0E0,0E0,0E0,0E0,0E0,0E0,0E0,0E0,0E0],"parents":[2147483647,0,0,1,1,2,2,3,3,4,4,5,5,6,6,7,7,8,8,9,9,10,10,11,11,12,12,13,13,14,14,15,15,16,16,17,17,18,18,19,19,20,20,21,21,22,22,23,23,24,24,25,25,26,26,27,27,28,28,29,29,30,30],"right_children":[2,4,6,8,10,12,14,16,18,20,22,24,26,28,30,32,34,36,38,40,42,44,46,48,50,52,54,56,58,60,62,-1,-1,-1,-1,-1,-1,-1,-1,-1,-1,-1,-1,-1,-1,-1,-1,-1,-1,-1,-1,-1,-1,-1,-1,-1,-1,-1,-1,-1,-1,-1,-1],"split_conditions":[6.7E1,5E1,8.3E1,3.9E1,5.8E1,7.5E1,9.2E1,3E1,3.28E1,1E-1,2.83E1,7E1,7.9E1,8.7E1,2.48E1,2.1516098E-2,3.19E1,2.96E1,1E-1,3.02E1,-4.5973274E-1,2.1352091E-1,1E-1,-8.800122E-1,2.64E1,7.383264E-1,1E-1,2.25E1,2.25E1,9.9E1,1.12E1,-5.557479E-1,-7.087464E-1,-1.4408858E-1,-4.5972148E-1,-4.144725E-2,-2.6667982E-1,-3.6104867E-1,-2.1633454E-1,-1.3541229E-1,-2.1688128E-1,-5.943607E-2,-2.4910252E-1,-3.1245012E-2,7.3075175E-2,-1.0213684E-1,2.564607E-2,4.6677908E-1,1.5818058E-2,1.2073424E-1,6.470509E-2,1.3313237E-1,2.5008288E-1,1.8771799E-1,2.741166E-1,3.473761E-1,2.5075075E-1,3.8654897E-1,3.156711E-1,4.2366114E-1,5.346581E-1,3.6370978E-1,4.7373297E-3],"split_indices":[1,1,1,1,1,1,1,1,0,2,0,1,1,1,0,4,0,0,2,0,4,3,2,3,0,4,2,0,0,1,2,0,0,0,0,0,0,0,0,0,0,0,0,0,0,0,0,0,0,0,0,0,0,0,0,0,0,0,0,0,0,0,0],"split_type":[0,0,0,0,0,0,0,0,0,0,0,0,0,0,0,0,0,0,0,0,0,0,0,0,0,0,0,0,0,0,0,0,0,0,0,0,0,0,0,0,0,0,0,0,0,0,0,0,0,0,0,0,0,0,0,0,0,0,0,0,0,0,0],"sum_hessian":[1E5,4.864E4,5.136E4,2.039E4,2.825E4,2.8526E4,2.2834E4,7.551E3,1.2839E4,1.191E4,1.634E4,1.5297E4,1.3229E4,1.3377E4,9.457E3,1.704E3,5.847E3,3.622E3,9.217E3,1.0681E4,1.229E3,4.788E3,1.1552E4,5.81E3,9.487E3,6.883E3,6.346E3,6.222E3,7.155E3,6.931E3,2.526E3,1.152E3,5.52E2,1.39E2,5.708E3,2.46E2,3.376E3,8.031E3,1.186E3,2.867E3,7.814E3,1.026E3,2.03E2,3.663E3,1.125E3,1.0031E4,1.521E3,3.2E1,5.778E3,2.415E3,7.072E3,6.448E3,4.35E2,5.412E3,9.34E2,4.42E2,5.78E3,7.88E2,6.367E3,6.112E3,8.19E2,2.511E3,1.5E1],"tree_param":{"num_deleted":"0","num_feature":"6","num_nodes":"63","size_leaf_vector":"1"}},{"base_weights":[-9.258923E-5,-2.2882047E0,1.7067634E0,-3.7479646E0,-1.4738853E0,6.709683E-1,2.9617946E0,-4.96816E0,-3.3581638E0,-2.1883578E0,-1.0092025E0,1.3694638E-1,1.194734E0,2.31627E0,3.5355296E0,1.9182575E-1,-5.0359955E0,-3.483558E0,-2.2847056E0,-1.7210373E0,-2.3830378E0,-1.8641496E-1,-1.1397341E0,6.4045763E-1,-3.8122002E-2,9.410245E-1,1.5387228E0,1.9843115E0,2.519337E0,3.2486732E0,4.0161085E0,4.1946784E-1,-8.136831E-2,-4.730793E-1,-6.205534E-1,-2.4624658E-1,-3.675644E-1,-2.6599586E-1,-1.2775259E-1,-2.0303276E-1,-1.0229816E-1,-1.6643171E-1,-2.5997934E-1,-4.4683147E-2,1.1356091E-1,-1.2665732E-1,-1.6574305E-2,4.656955E-2,1.6749455E-1,-5.853778E-3,4.1463357E-1,8.67969E-2,2.1500452E-1,1.5322112E-1,8.573136E-1,1.8019035E-1,2.532345E-1,2.8527123E-1,2.3416029E-1,3.1052366E-1,3.5218522E-1,-1.2072569E0,4.0310475E-1],"categories":[],"categories_nodes":[],"categories_segments":[],"categories_sizes":[],"default_left":[0,0,0,0,0,0,0,0,0,0,0,0,0,0,0,0,0,0,0,0,0,0,0,0,0,0,0,0,0,0,0,0,0,0,0,0,0,0,0,0,0,0,0,0,0,0,0,0,0,0,0,0,0,0,0,0,0,0,0,0,0,0,0],"id":19,"left_children":[1,3,5,7,9,11,13,15,17,19,21,23,25,27,29,31,33,35,37,39,41,43,45,47,49,51,53,55,57,59,61,-1,-1,-1,-1,-1,-1,-1,-1,-1,-1,-1,-1,-1,-1,-1,-1,-1,-1,-1,-1,-1,-1,-1,-1,-1,-1,-1,-1,-1,-1,-1,-1],"loss_changes":[3.905556E5,5.078336E4,7.4454234E4,7.2600312E3,9.103973E3,8.776896E3,9.583016E3,1.2967812E3,1.5531875E3,9.791875E2,1.7848809E3,1.36977E3,1.3811348E3,8.1665625E2,1.8768438E3,2.0063342E2,1.2749219E3,2.0274531E3,4.5618604E2,6.849219E2,1.1838555E3,7.844259E2,1.7719746E3,7.240045E2,9.8532404E2,8.036636E2,2.9481543E2,4.583789E2,4.4120703E2,3.2564844E2,1.2792344E3,0E0,0E0,0E0,0E0,0E0,0E0,0E0,0E0,0E0,0E0,0E0,0E0,0E0,0E0,0E0,0E0,0E0,0E0,0E0,0E0,0E0,0E0,0E0,0E0,0E0,0E0,0E0,0E0,0E0,0E0,0E0,0E0],"parents":[2147483647,0,0,1,1,2,2,3,3,4,4,5,5,6,6,7,7,8,8,9,9,10,10,11,11,12,12,13,13,14,14,15,15,16,16,17,17,18,18,19,19,20,20,21,21,22,22,23,23,24,24,25,25,26,26,27,27,28,28,29,29,30,30],"right_children":[2,4,6,8,10,12,14,16,18,20,22,24,26,28,30,32,34,36,38,40,42,44,46,48,50,52,54,56,58,60,62,-1,-1,-1,-1,-1,-1,-1,-1,-1,-1,-1,-1,-1,-1,-1,-1,-1,-1,-1,-1,-1,-1,-1,-1,-1,-1,-1,-1,-1,-1,-1,-1],"split_conditions":[6.4E1,4.6E1,8.1E1,3.4E1,5.4E1,7.2E1,8.9E1,3.15E1,1E-1,3.15E1,2.82E1,2.72E1,7.7E1,8.4E1,9.5E1,2.94E1,3.872228E-2,3.3E1,2.8023067E-1,1.6280702E-1,-5.160624E-1,7.309513E-2,1E-1,-4.5973274E-1,3.3E0,3E-1,9.9E0,-4.2889193E-1,2.48E1,9.3E1,-8.800122E-1,4.1946784E-1,-8.136831E-2,-4.730793E-1,-6.205534E-1,-2.4624658E-1,-3.675644E-1,-2.6599586E-1,-1.2775259E-1,-2.0303276E-1,-1.0229816E-1,-1.6643171E-1,-2.5997934E-1,-4.4683147E-2,1.1356091E-1,-1.2665732E-1,-1.6574305E-2,4.656955E-2,1.6749455E-1,-5.853778E-3,4.1463357E-1,8.67969E-2,2.1500452E-1,1.5322112E-1,8.573136E-1,1.8019035E-1,2.532345E-1,2.8527123E-1,2.3416029E-1,3.1052366E-1,3.5218522E-1,-1.2072569E0,4.0310475E-1],"split_indices":[1,1,1,1,1,1,1,0,2,0,0,0,1,1,1,0,4,0,3,3,3,4,2,4,2,2,2,4,0,1,3,0,0,0,0,0,0,0,0,0,0,0,0,0,0,0,0,0,0,0,0,0,0,0,0,0,0,0,0,0,0,0,0],"split_type":[0,0,0,0,0,0,0,0,0,0,0,0,0,0,0,0,0,0,0,0,0,0,0,0,0,0,0,0,0,0,0,0,0,0,0,0,0,0,0,0,0,0,0,0,0,0,0,0,0,0,0,0,0,0,0,0,0,0,0,0,0,0,0],"sum_hessian":[1E5,4.2725E4,5.7275E4,1.5298E4,2.7427E4,3.1379E4,2.5896E4,3.701E3,1.1597E4,1.0807E4,1.662E4,1.5538E4,1.5841E4,1.2188E4,1.3708E4,4.8E1,3.653E3,1.0382E4,1.215E3,3.181E3,7.626E3,2.276E3,1.4344E4,4.008E3,1.153E4,9.119E3,6.722E3,4.63E3,7.558E3,8.589E3,5.119E3,9E0,3.9E1,2.901E3,7.52E2,1.646E3,8.736E3,8.84E2,3.31E2,2.203E3,9.78E2,1.769E3,5.857E3,1.902E3,3.74E2,1.2691E4,1.653E3,3.43E3,5.78E2,1.1475E4,5.5E1,8.601E3,5.18E2,6.717E3,5E0,3.477E3,1.153E3,2.623E3,4.935E3,5.64E3,2.949E3,4E0,5.115E3],"tree_param":{"num_deleted":"0","num_feature":"6","num_nodes":"63","size_leaf_vector":"1"}},{"base_weights":[-8.2433566E-5,-1.7573407E0,1.8010138E0,-3.011556E0,-8.082719E-1,1.0022296E0,2.857073E0,-3.8835223E0,-2.4539032E0,-1.25984E0,-2.8088903E-1,5.7741183E-1,1.4895823E0,2.4393945E0,3.3783174E0,-4.814029E0,-3.578363E0,-2.5671842E0,-1.521225E0,-7.0263284E-1,-1.4163499E0,-3.4507465E-1,1.2210988E0,1.0334439E0,4.36344E-1,1.4091604E0,2.2512064E0,2.2083294E0,2.6877017E0,3.8414242E0,3.178602E0,-3.43526E-2,-4.9007946E-1,-2.5583038E-2,-3.621397E-1,-1.698349E-1,-2.7379918E-1,-2.382419E-1,-1.1145113E-1,-9.05227E-2,3.76667E-2,-1.5104154E-1,-2.3368726E-2,1.4088859E-2,-5.4115523E-2,2.4501322E-1,-7.359975E-2,1.4186855E-1,7.178964E-2,3.4337424E-2,1.3034742E-1,1.2433495E-1,1.8880521E-1,2.4304393E-1,-3.3719313E-1,2.1175888E-1,2.8182057E-1,2.8556383E-1,2.4547687E-1,3.539761E-1,4.1962072E-1,2.967044E-1,3.526899E-1],"categories":[],"categories_nodes":[],"categories_segments":[],"categories_sizes":[],"default_left":[0,0,0,0,0,0,0,0,0,0,0,0,0,0,0,0,0,0,0,0,0,0,0,0,0,0,0,0,0,0,0,0,0,0,0,0,0,0,0,0,0,0,0,0,0,0,0,0,0,0,0,0,0,0,0,0,0,0,0,0,0,0,0],"id":20,"left_children":[1,3,5,7,9,11,13,15,17,19,21,23,25,27,29,31,33,35,37,39,41,43,45,47,49,51,53,55,57,59,61,-1,-1,-1,-1,-1,-1,-1,-1,-1,-1,-1,-1,-1,-1,-1,-1,-1,-1,-1,-1,-1,-1,-1,-1,-1,-1,-1,-1,-1,-1,-1,-1],"loss_changes":[3.1650544E5,6.024883E4,4.165653E4,1.0592297E4,6.861918E3,5.820787E3,4.6218438E3,2.3972188E3,1.4014062E3,1.3527402E3,1.2819465E3,9.661294E2,7.989121E2,6.7166406E2,8.625625E2,8.1171484E2,9.1516406E2,1.7552734E3,5.0276904E2,7.450962E2,1.3477461E3,1.2149025E3,1.3127118E3,4.3040503E2,9.2479224E2,9.3836914E2,1.2670015E3,3.3288477E2,2.1549219E2,2.896328E2,4.7689062E2,0E0,0E0,0E0,0E0,0E0,0E0,0E0,0E0,0E0,0E0,0E0,0E0,0E0,0E0,0E0,0E0,0E0,0E0,0E0,0E0,0E0,0E0,0E0,0E0,0E0,0E0,0E0,0E0,0E0,0E0,0E0,0E0],"parents":[2147483647,0,0,1,1,2,2,3,3,4,4,5,5,6,6,7,7,8,8,9,9,10,10,11,11,12,12,13,13,14,14,15,15,16,16,17,17,18,18,19,19,20,20,21,21,22,22,23,23,24,24,25,25,26,26,27,27,28,28,29,29,30,30],"right_children":[2,4,6,8,10,12,14,16,18,20,22,24,26,28,30,32,34,36,38,40,42,44,46,48,50,52,54,56,58,60,62,-1,-1,-1,-1,-1,-1,-1,-1,-1,-1,-1,-1,-1,-1,-1,-1,-1,-1,-1,-1,-1,-1,-1,-1,-1,-1,-1,-1,-1,-1,-1,-1],"split_conditions":[6.8E1,5.1E1,8.4E1,4E1,6.1E1,7.6E1,9.2E1,3.1E1,1E-1,2.94E1,3E-1,2.64E1,2E-1,8.8E1,2.26E1,3.22E1,3.1E1,3.17E1,-9.599327E-1,5.160624E-1,2E-1,2.79E1,-7.206671E-1,2.3E1,2.99E1,-4.7495106E-1,9.3985605E-1,2E-1,2.5E1,9.7E1,2.1516098E-2,-3.43526E-2,-4.9007946E-1,-2.5583038E-2,-3.621397E-1,-1.698349E-1,-2.7379918E-1,-2.382419E-1,-1.1145113E-1,-9.05227E-2,3.76667E-2,-1.5104154E-1,-2.3368726E-2,1.4088859E-2,-5.4115523E-2,2.4501322E-1,-7.359975E-2,1.4186855E-1,7.178964E-2,3.4337424E-2,1.3034742E-1,1.2433495E-1,1.8880521E-1,2.4304393E-1,-3.3719313E-1,2.1175888E-1,2.8182057E-1,2.8556383E-1,2.4547687E-1,3.539761E-1,4.1962072E-1,2.967044E-1,3.526899E-1],"split_indices":[1,1,1,1,1,1,1,1,2,0,2,0,2,1,0,0,0,0,4,3,2,0,4,5,0,4,3,2,5,1,4,0,0,0,0,0,0,0,0,0,0,0,0,0,0,0,0,0,0,0,0,0,0,0,0,0,0,0,0,0,0,0,0],"split_type":[0,0,0,0,0,0,0,0,0,0,0,0,0,0,0,0,0,0,0,0,0,0,0,0,0,0,0,0,0,0,0,0,0,0,0,0,0,0,0,0,0,0,0,0,0,0,0,0,0,0,0,0,0,0,0,0,0,0,0,0,0,0,0],"sum_hessian":[1E5,5.0616E4,4.9384E4,2.1802E4,2.8814E4,2.8118E4,2.1266E4,8.502E3,1.33E4,1.5522E4,1.3292E4,1.5024E4,1.3094E4,1.1809E4,9.457E3,2.096E3,6.406E3,1.1858E4,1.442E3,3.405E3,1.2117E4,1.2748E4,5.44E2,3.548E3,1.1476E4,1.1846E4,1.248E3,6.122E3,5.687E3,2.844E3,6.613E3,4E1,2.056E3,8.2E1,6.324E3,1.95E3,9.908E3,4.61E2,9.81E2,2.867E3,5.38E2,1.1224E4,8.93E2,3.665E3,9.083E3,3.34E2,2.1E2,1.596E3,1.952E3,1.0366E4,1.11E3,8.802E3,3.044E3,1.21E3,3.8E1,5.333E3,7.89E2,3.298E3,2.389E3,1.543E3,1.301E3,4.12E3,2.493E3],"tree_param":{"num_deleted":"0","num_feature":"6","num_nodes":"63","size_leaf_vector":"1"}},{"base_weights":[-6.215522E-5,-1.8556103E0,1.3841152E0,-2.9757605E0,-1.1506884E0,5.424726E-1,2.4039E0,-3.942548E0,-2.6310859E0,-1.673788E0,-7.693144E-1,1.081387E-1,9.6846503E-1,1.9366144E0,2.9227874E0,-5.3835235E0,-3.7481556E0,6.584416E-1,-2.6663883E0,-1.7706681E0,-8.352052E-1,2.3958947E-1,-8.47441E-1,5.0466114E-1,-4.833778E-2,1.5122684E0,8.616269E-1,2.3101418E0,1.7875565E0,2.7224212E0,3.3406413E0,-9.360773E-1,-5.1083046E-1,-3.867196E-1,-1.6500016E-1,-1.3074265E-1,3.3629426E-1,-2.2382061E-1,-2.92928E-1,-1.22150004E-1,-1.9051161E-1,2.6027871E-2,-1.2932198E-1,-6.96101E-3,1.8584262E-1,-9.381874E-2,-9.425643E-3,3.6384307E-2,1.376631E-1,-6.7032985E-3,3.6541754E-1,1.4132181E-1,3.8068435E-1,6.826895E-2,1.13513134E-1,2.5103152E-1,1.9567427E-1,1.6497777E-1,2.2123377E-1,3.1518272E-1,2.6267442E-1,3.2355687E-1,4.3224797E-1],"categories":[],"categories_nodes":[],"categories_segments":[],"categories_sizes":[],"default_left":[0,0,0,0,0,0,0,0,0,0,0,0,0,0,0,0,0,0,0,0,0,0,0,0,0,0,0,0,0,0,0,0,0,0,0,0,0,0,0,0,0,0,0,0,0,0,0,0,0,0,0,0,0,0,0,0,0,0,0,0,0,0,0],"id":21,"left_children":[1,3,5,7,9,11,13,15,17,19,21,23,25,27,29,31,33,35,37,39,41,43,45,47,49,51,53,55,57,59,61,-1,-1,-1,-1,-1,-1,-1,-1,-1,-1,-1,-1,-1,-1,-1,-1,-1,-1,-1,-1,-1,-1,-1,-1,-1,-1,-1,-1,-1,-1,-1,-1],"loss_changes":[2.568459E5,3.3733812E4,4.915835E4,5.4885312E3,5.230508E3,5.805916E3,6.273547E3,1.1941172E3,1.4148125E3,8.968164E2,1.1958584E3,9.641641E2,9.191006E2,7.546953E2,1.0181094E3,5.137197E2,9.4847266E2,6.955668E2,1.348625E3,7.294453E2,5.758412E2,5.462224E2,9.6219336E2,5.3940283E2,7.7155475E2,5.8554443E2,6.4733984E2,2.698457E2,5.6674023E2,3.326328E2,3.9578516E2,0E0,0E0,0E0,0E0,0E0,0E0,0E0,0E0,0E0,0E0,0E0,0E0,0E0,0E0,0E0,0E0,0E0,0E0,0E0,0E0,0E0,0E0,0E0,0E0,0E0,0E0,0E0,0E0,0E0,0E0,0E0,0E0],"parents":[2147483647,0,0,1,1,2,2,3,3,4,4,5,5,6,6,7,7,8,8,9,9,10,10,11,11,12,12,13,13,14,14,15,15,16,16,17,17,18,18,19,19,20,20,21,21,22,22,23,23,24,24,25,25,26,26,27,27,28,28,29,29,30,30],"right_children":[2,4,6,8,10,12,14,16,18,20,22,24,26,28,30,32,34,36,38,40,42,44,46,48,50,52,54,56,58,60,62,-1,-1,-1,-1,-1,-1,-1,-1,-1,-1,-1,-1,-1,-1,-1,-1,-1,-1,-1,-1,-1,-1,-1,-1,-1,-1,-1,-1,-1,-1,-1,-1],"split_conditions":[6.4E1,4.7E1,8.1E1,3.5E1,5.5E1,7.2E1,9E1,2.5E1,2.96E1,1E-1,2.76E1,2.73E1,2.51E1,2.46E1,9.6E1,1.5E1,1E-1,4.3665123E-1,2.3E1,3.06E1,1.7E1,4.520722E-1,1E-1,-4.5973274E-1,3.3E0,3E-1,7.7E1,2.5E1,8.3592546E-1,2.26E1,1E2,-9.360773E-1,-5.1083046E-1,-3.867196E-1,-1.6500016E-1,-1.3074265E-1,3.3629426E-1,-2.2382061E-1,-2.92928E-1,-1.22150004E-1,-1.9051161E-1,2.6027871E-2,-1.2932198E-1,-6.96101E-3,1.8584262E-1,-9.381874E-2,-9.425643E-3,3.6384307E-2,1.376631E-1,-6.7032985E-3,3.6541754E-1,1.4132181E-1,3.8068435E-1,6.826895E-2,1.13513134E-1,2.5103152E-1,1.9567427E-1,1.6497777E-1,2.2123377E-1,3.1518272E-1,2.6267442E-1,3.2355687E-1,4.3224797E-1],"split_indices":[1,1,1,1,1,1,1,1,0,2,0,0,0,0,1,1,2,4,5,0,5,4,2,4,2,2,1,5,3,0,1,0,0,0,0,0,0,0,0,0,0,0,0,0,0,0,0,0,0,0,0,0,0,0,0,0,0,0,0,0,0,0,0],"split_type":[0,0,0,0,0,0,0,0,0,0,0,0,0,0,0,0,0,0,0,0,0,0,0,0,0,0,0,0,0,0,0,0,0,0,0,0,0,0,0,0,0,0,0,0,0,0,0,0,0,0,0,0,0,0,0,0,0,0,0,0,0,0,0],"sum_hessian":[1E5,4.2725E4,5.7275E4,1.6501E4,2.6224E4,3.1379E4,2.5896E4,4.334E3,1.2167E4,1.1056E4,1.5168E4,1.5538E4,1.5841E4,1.3628E4,1.2268E4,5.12E2,3.822E3,1.29E2,1.2038E4,9.91E3,1.146E3,1.09E3,1.4078E4,4.396E3,1.1142E4,2.599E3,1.3242E4,3.883E3,9.745E3,8.297E3,3.971E3,3.1E1,4.81E2,3.616E3,2.06E2,7.5E1,5.4E1,4.583E3,7.455E3,1.951E3,7.959E3,3.38E2,8.08E2,9.16E2,1.74E2,1.2564E4,1.514E3,3.786E3,6.1E2,1.1087E4,5.5E1,2.493E3,1.06E2,8.007E3,5.235E3,2.475E3,1.408E3,7.362E3,2.383E3,1.506E3,6.791E3,3.591E3,3.8E2],"tree_param":{"num_deleted":"0","num_feature":"6","num_nodes":"63","size_leaf_vector":"1"}},{"base_weights":[-4.8006226E-5,-1.4259726E0,1.4614489E0,-2.3897054E0,-6.100596E-1,8.123199E-1,2.3196518E0,-3.1633878E0,-1.9421393E0,-9.70759E-1,-2.2687414E-1,4.7353813E-1,1.2009708E0,2.0212085E0,2.8075478E0,-4.337655E0,-2.9914107E0,-2.0421886E0,-1.1044625E0,-3.6529884E-1,-1.0689561E0,-2.83051E-1,1.0876689E0,1.1267058E0,4.049106E-1,1.1298088E0,1.8749945E0,1.9161633E0,2.5221038E0,2.967723E0,2.322593E0,-8.453949E-1,-4.208444E-1,3.7622E-2,-3.032811E-1,-1.3322197E-1,-2.2088909E-1,-1.1944866E-1,1.1825533E-1,4.7429167E-2,-6.718307E-2,-1.1531452E-1,-4.435359E-2,1.119724E-2,-4.4243816E-2,2.5163147E-1,-3.345185E-2,9.252136E-2,2.3040862E-1,3.7452433E-2,2.1851312E-1,9.891974E-2,1.5615019E-1,-1.1602863E0,1.9384931E-1,1.7104964E-1,2.1123496E-1,1.8982166E-1,3.029022E-1,-4.445694E-1,2.9782537E-1,9.91941E-2,2.400674E-1],"categories":[],"categories_nodes":[],"categories_segments":[],"categories_sizes":[],"default_left":[0,0,0,0,0,0,0,0,0,0,0,0,0,0,0,0,0,0,0,0,0,0,0,0,0,0,0,0,0,0,0,0,0,0,0,0,0,0,0,0,0,0,0,0,0,0,0,0,0,0,0,0,0,0,0,0,0,0,0,0,0,0,0],"id":22,"left_children":[1,3,5,7,9,11,13,15,17,19,21,23,25,27,29,31,33,35,37,39,41,43,45,47,49,51,53,55,57,59,61,-1,-1,-1,-1,-1,-1,-1,-1,-1,-1,-1,-1,-1,-1,-1,-1,-1,-1,-1,-1,-1,-1,-1,-1,-1,-1,-1,-1,-1,-1,-1,-1],"loss_changes":[2.0840262E5,3.9799812E4,2.7509727E4,8.0294844E3,3.7885225E3,3.7017988E3,3.091E3,1.7041797E3,1.2300742E3,8.391074E2,9.819551E2,6.7304346E2,6.259824E2,6.8965625E2,6.198906E2,5.4096875E2,1.0356406E3,1.5515078E3,3.2486047E2,5.0783496E2,6.391748E2,8.0274756E2,1.1081741E3,3.3663684E2,7.3475586E2,7.175791E2,1.0914155E3,4.3679688E2,7.169033E2,4.864961E2,2.0624512E2,0E0,0E0,0E0,0E0,0E0,0E0,0E0,0E0,0E0,0E0,0E0,0E0,0E0,0E0,0E0,0E0,0E0,0E0,0E0,0E0,0E0,0E0,0E0,0E0,0E0,0E0,0E0,0E0,0E0,0E0,0E0,0E0],"parents":[2147483647,0,0,1,1,2,2,3,3,4,4,5,5,6,6,7,7,8,8,9,9,10,10,11,11,12,12,13,13,14,14,15,15,16,16,17,17,18,18,19,19,20,20,21,21,22,22,23,23,24,24,25,25,26,26,27,27,28,28,29,29,30,30],"right_children":[2,4,6,8,10,12,14,16,18,20,22,24,26,28,30,32,34,36,38,40,42,44,46,48,50,52,54,56,58,60,62,-1,-1,-1,-1,-1,-1,-1,-1,-1,-1,-1,-1,-1,-1,-1,-1,-1,-1,-1,-1,-1,-1,-1,-1,-1,-1,-1,-1,-1,-1,-1,-1],"split_conditions":[6.8E1,5.2E1,8.4E1,4E1,6.1E1,7.6E1,9.3E1,2.8E1,1E-1,2.88E1,3E-1,2.53E1,2E-1,2E-1,2.48E1,1.5E1,3.1E1,3.17E1,1.1E0,1.7E1,1E-1,2.79E1,-2.3030567E-1,4.520722E-1,1.3E0,-4.5973274E-1,-8.717063E-1,8.8E1,-8.382797E-1,-8.800122E-1,-6.551564E-1,-8.453949E-1,-4.208444E-1,3.7622E-2,-3.032811E-1,-1.3322197E-1,-2.2088909E-1,-1.1944866E-1,1.1825533E-1,4.7429167E-2,-6.718307E-2,-1.1531452E-1,-4.435359E-2,1.119724E-2,-4.4243816E-2,2.5163147E-1,-3.345185E-2,9.252136E-2,2.3040862E-1,3.7452433E-2,2.1851312E-1,9.891974E-2,1.5615019E-1,-1.1602863E0,1.9384931E-1,1.7104964E-1,2.1123496E-1,1.8982166E-1,3.029022E-1,-4.445694E-1,2.9782537E-1,9.91941E-2,2.400674E-1],"split_indices":[1,1,1,1,1,1,1,1,2,0,2,0,2,2,0,1,0,0,2,5,2,0,3,4,2,4,3,1,4,3,3,0,0,0,0,0,0,0,0,0,0,0,0,0,0,0,0,0,0,0,0,0,0,0,0,0,0,0,0,0,0,0,0],"split_type":[0,0,0,0,0,0,0,0,0,0,0,0,0,0,0,0,0,0,0,0,0,0,0,0,0,0,0,0,0,0,0,0,0,0,0,0,0,0,0,0,0,0,0,0,0,0,0,0,0,0,0,0,0,0,0,0,0,0,0,0,0,0,0],"sum_hessian":[1E5,5.0616E4,4.9384E4,2.3205E4,2.7411E4,2.8118E4,2.1266E4,8.502E3,1.4703E4,1.4119E4,1.3292E4,1.5024E4,1.3094E4,1.3198E4,8.068E3,1.083E3,7.419E3,1.3133E4,1.57E3,1.971E3,1.2148E4,1.2748E4,5.44E2,1.427E3,1.3597E4,1.1846E4,1.248E3,1.0914E4,2.284E3,6.061E3,2.007E3,3.1E1,1.052E3,9E1,7.329E3,2.499E3,1.0634E4,1.511E3,5.9E1,5.27E2,1.444E3,1.0706E4,1.442E3,3.665E3,9.083E3,2.71E2,2.73E2,1.22E3,2.07E2,1.337E4,2.27E2,8.938E3,2.908E3,5E0,1.243E3,5.333E3,5.581E3,1.026E3,1.258E3,8E0,6.053E3,1.12E2,1.895E3],"tree_param":{"num_deleted":"0","num_feature":"6","num_nodes":"63","size_leaf_vector":"1"}},{"base_weights":[-5.3343658E-5,-1.3914059E0,1.2144681E0,-2.361429E0,-7.9256135E-1,5.5828327E-1,1.9976562E0,-3.137612E0,-2.053427E0,-1.1804998E0,-3.9903635E-1,2.3938976E-1,9.2123353E-1,1.6569368E0,2.4189804E0,-3.2494843E0,-1.144195E0,-1.4661366E0,-2.2004802E0,-7.4837095E-1,-1.298929E0,-4.874301E-2,-5.2349424E-1,1.5196656E-1,9.510345E-1,1.2721344E0,7.8754663E-1,1.5469995E0,2.0690048E0,2.820379E0,2.2628539E0,-1.2526868E-1,-3.3523855E-1,-2.8973356E-1,-4.5505196E-2,-1.7640106E-1,-1.4504194E-2,-1.6474664E-1,-2.4847177E-1,-1.0096859E-1,-1.6092421E-2,-9.652592E-2,-1.4892869E-1,-2.7832646E-2,7.2478816E-2,-6.270078E-2,1.8173447E-2,4.2976136E-3,8.016466E-2,1.4479564E-1,-3.0802143E-1,1.1745769E-1,2.2687912E-1,6.9688E-2,1.4922807E-1,1.2985645E-1,2.0287345E-1,2.2974734E-1,6.2396694E-2,2.5822636E-1,3.1367972E-1,2.170902E-1,2.9094836E-1],"categories":[],"categories_nodes":[],"categories_segments":[],"categories_sizes":[],"default_left":[0,0,0,0,0,0,0,0,0,0,0,0,0,0,0,0,0,0,0,0,0,0,0,0,0,0,0,0,0,0,0,0,0,0,0,0,0,0,0,0,0,0,0,0,0,0,0,0,0,0,0,0,0,0,0,0,0,0,0,0,0,0,0],"id":23,"left_children":[1,3,5,7,9,11,13,15,17,19,21,23,25,27,29,31,33,35,37,39,41,43,45,47,49,51,53,55,57,59,61,-1,-1,-1,-1,-1,-1,-1,-1,-1,-1,-1,-1,-1,-1,-1,-1,-1,-1,-1,-1,-1,-1,-1,-1,-1,-1,-1,-1,-1,-1,-1,-1],"loss_changes":[1.6898612E5,2.7072398E4,2.743893E4,4.246539E3,4.3991367E3,3.3625605E3,3.4902188E3,1.122918E3,1.0969492E3,7.417051E2,6.2375684E2,9.621236E2,6.364238E2,6.0660547E2,6.7552344E2,9.785781E2,3.2488602E2,1.00479346E3,1.5970156E3,4.7939844E2,7.219551E2,6.6651917E2,7.707827E2,9.754291E2,3.393901E3,3.6166113E2,6.2782324E2,1.2695625E3,9.3353906E2,2.2116992E2,4.5977734E2,0E0,0E0,0E0,0E0,0E0,0E0,0E0,0E0,0E0,0E0,0E0,0E0,0E0,0E0,0E0,0E0,0E0,0E0,0E0,0E0,0E0,0E0,0E0,0E0,0E0,0E0,0E0,0E0,0E0,0E0,0E0,0E0],"parents":[2147483647,0,0,1,1,2,2,3,3,4,4,5,5,6,6,7,7,8,8,9,9,10,10,11,11,12,12,13,13,14,14,15,15,16,16,17,17,18,18,19,19,20,20,21,21,22,22,23,23,24,24,25,25,26,26,27,27,28,28,29,29,30,30],"right_children":[2,4,6,8,10,12,14,16,18,20,22,24,26,28,30,32,34,36,38,40,42,44,46,48,50,52,54,56,58,60,62,-1,-1,-1,-1,-1,-1,-1,-1,-1,-1,-1,-1,-1,-1,-1,-1,-1,-1,-1,-1,-1,-1,-1,-1,-1,-1,-1,-1,-1,-1,-1,-1],"split_conditions":[6.6E1,4.8E1,8.2E1,3.6E1,5.8E1,7.4E1,9.1E1,1E-1,3.29E1,3.02E1,2.83E1,1E-1,2.56E1,1E-1,2.26E1,3.32E1,3.65E1,7.8564984E-1,-2.3030567E-1,1.7976658E-1,-2.636655E-1,2.1352091E-1,1E-1,-4.5973274E-1,8.717063E-1,1E-1,2.9E1,-4.5973274E-1,-4.7495106E-1,9.7E1,8.5207754E-1,-1.2526868E-1,-3.3523855E-1,-2.8973356E-1,-4.5505196E-2,-1.7640106E-1,-1.4504194E-2,-1.6474664E-1,-2.4847177E-1,-1.0096859E-1,-1.6092421E-2,-9.652592E-2,-1.4892869E-1,-2.7832646E-2,7.2478816E-2,-6.270078E-2,1.8173447E-2,4.2976136E-3,8.016466E-2,1.4479564E-1,-3.0802143E-1,1.1745769E-1,2.2687912E-1,6.9688E-2,1.4922807E-1,1.2985645E-1,2.0287345E-1,2.2974734E-1,6.2396694E-2,2.5822636E-1,3.1367972E-1,2.170902E-1,2.9094836E-1],"split_indices":[1,1,1,1,1,1,1,2,0,0,0,2,0,2,0,0,0,3,3,3,3,3,2,4,3,2,0,4,4,1,4,0,0,0,0,0,0,0,0,0,0,0,0,0,0,0,0,0,0,0,0,0,0,0,0,0,0,0,0,0,0,0,0],"split_type":[0,0,0,0,0,0,0,0,0,0,0,0,0,0,0,0,0,0,0,0,0,0,0,0,0,0,0,0,0,0,0,0,0,0,0,0,0,0,0,0,0,0,0,0,0,0,0,0,0,0,0,0,0,0,0,0,0,0,0,0,0,0,0],"sum_hessian":[1E5,4.6607E4,5.3393E4,1.7789E4,2.8818E4,2.9053E4,2.434E4,5.051E3,1.2738E4,1.4511E4,1.4307E4,1.5466E4,1.3587E4,1.346E4,1.088E4,4.782E3,2.69E2,2.553E3,1.0185E4,3.123E3,1.1388E4,3.751E3,1.0556E4,1.3775E4,1.691E3,3.746E3,9.841E3,1.0629E4,2.831E3,3.042E3,7.838E3,2.35E2,4.547E3,7.5E1,1.94E2,2.083E3,4.7E2,3.46E3,6.725E3,2.161E3,9.62E2,4.139E3,7.249E3,2.893E3,8.58E2,9.205E3,1.351E3,1.1797E4,1.978E3,1.506E3,1.85E2,3.414E3,3.32E2,8.721E3,1.12E3,7.015E3,3.614E3,2.444E3,3.87E2,1.741E3,1.301E3,6.866E3,9.72E2],"tree_param":{"num_deleted":"0","num_feature":"6","num_nodes":"63","size_leaf_vector":"1"}},{"base_weights":[-4.314673E-5,-1.1569113E0,1.1856852E0,-1.9408017E0,-4.9325597E-1,6.587168E-1,1.8823814E0,-2.5195272E0,-1.5364753E0,-8.245558E-1,-2.2063163E-1,4.408512E-1,1.077422E0,1.6390121E0,2.2802436E0,-3.0702674E0,-2.255331E0,-1.6284888E0,-7.620735E-1,-5.647343E-1,-9.4618285E-1,-2.6835325E-1,8.6585546E-1,7.752237E-1,3.159378E-1,9.650881E-1,1.4244773E0,1.551618E0,2.0557594E0,2.0995338E0,2.6133125E0,-5.1519215E-1,-2.9616E-1,1.2955933E-3,-2.2906747E-1,-1.0665917E-1,-1.7704822E-1,-1.08880416E-1,3.8751368E-3,-8.03337E-2,-7.5862394E-3,-1.19673215E-1,-7.332447E-2,2.8891715E-3,-4.4714626E-2,1.8383723E-1,-7.025393E-2,1.0778258E-1,4.9041104E-2,2.2849083E-2,1.01717606E-1,7.883697E-2,1.8029709E-1,1.570912E-1,-3.397995E-2,1.8141888E-1,1.4252326E-1,1.4823093E-1,2.5219053E-1,-4.261768E-1,2.1100831E-1,2.6431254E-1,-5.278029E-1],"categories":[],"categories_nodes":[],"categories_segments":[],"categories_sizes":[],"default_left":[0,0,0,0,0,0,0,0,0,0,0,0,0,0,0,0,0,0,0,0,0,0,0,0,0,0,0,0,0,0,0,0,0,0,0,0,0,0,0,0,0,0,0,0,0,0,0,0,0,0,0,0,0,0,0,0,0,0,0,0,0,0,0],"id":24,"left_children":[1,3,5,7,9,11,13,15,17,19,21,23,25,27,29,31,33,35,37,39,41,43,45,47,49,51,53,55,57,59,61,-1,-1,-1,-1,-1,-1,-1,-1,-1,-1,-1,-1,-1,-1,-1,-1,-1,-1,-1,-1,-1,-1,-1,-1,-1,-1,-1,-1,-1,-1,-1,-1],"loss_changes":[1.3717588E5,2.6331688E4,1.812982E4,5.4261875E3,2.4756812E3,2.564581E3,2.0554844E3,1.3816172E3,9.723926E2,3.905E2,7.799888E2,7.7233057E2,3.737881E2,4.7753516E2,4.8017578E2,6.8394727E2,5.173633E2,9.724551E2,3.8022534E2,4.6045825E2,4.4871533E2,7.6567737E2,9.668003E2,4.3298145E2,8.256406E2,1.0754873E3,6.079175E2,3.596328E2,6.0706836E2,3.603711E2,6.806875E2,0E0,0E0,0E0,0E0,0E0,0E0,0E0,0E0,0E0,0E0,0E0,0E0,0E0,0E0,0E0,0E0,0E0,0E0,0E0,0E0,0E0,0E0,0E0,0E0,0E0,0E0,0E0,0E0,0E0,0E0,0E0,0E0],"parents":[2147483647,0,0,1,1,2,2,3,3,4,4,5,5,6,6,7,7,8,8,9,9,10,10,11,11,12,12,13,13,14,14,15,15,16,16,17,17,18,18,19,19,20,20,21,21,22,22,23,23,24,24,25,25,26,26,27,27,28,28,29,29,30,30],"right_children":[2,4,6,8,10,12,14,16,18,20,22,24,26,28,30,32,34,36,38,40,42,44,46,48,50,52,54,56,58,60,62,-1,-1,-1,-1,-1,-1,-1,-1,-1,-1,-1,-1,-1,-1,-1,-1,-1,-1,-1,-1,-1,-1,-1,-1,-1,-1,-1,-1,-1,-1,-1,-1],"split_conditions":[6.8E1,5.2E1,8.4E1,4.1E1,6E1,7.8E1,9.3E1,3.3E1,1E-1,3E1,3E-1,2.64E1,-4.5973274E-1,2E-1,2.2611569E-1,2E1,3.11E1,3.17E1,3E1,9.453675E-2,-8.475409E-1,2.83E1,-7.206671E-1,2.3E1,2.97E1,1E-1,1E-1,2.42E1,-8.382797E-1,-8.800122E-1,2.63E1,-5.1519215E-1,-2.9616E-1,1.2955933E-3,-2.2906747E-1,-1.0665917E-1,-1.7704822E-1,-1.08880416E-1,3.8751368E-3,-8.03337E-2,-7.5862394E-3,-1.19673215E-1,-7.332447E-2,2.8891715E-3,-4.4714626E-2,1.8383723E-1,-7.025393E-2,1.0778258E-1,4.9041104E-2,2.2849083E-2,1.01717606E-1,7.883697E-2,1.8029709E-1,1.570912E-1,-3.397995E-2,1.8141888E-1,1.4252326E-1,1.4823093E-1,2.5219053E-1,-4.261768E-1,2.1100831E-1,2.6431254E-1,-5.278029E-1],"split_indices":[1,1,1,1,1,1,1,1,2,0,2,0,4,2,4,1,0,0,5,3,4,0,4,5,0,2,2,0,4,3,0,0,0,0,0,0,0,0,0,0,0,0,0,0,0,0,0,0,0,0,0,0,0,0,0,0,0,0,0,0,0,0,0],"split_type":[0,0,0,0,0,0,0,0,0,0,0,0,0,0,0,0,0,0,0,0,0,0,0,0,0,0,0,0,0,0,0,0,0,0,0,0,0,0,0,0,0,0,0,0,0,0,0,0,0,0,0,0,0,0,0,0,0,0,0,0,0,0,0],"sum_hessian":[1E5,5.0616E4,4.9384E4,2.3205E4,2.7411E4,2.8118E4,2.1266E4,9.542E3,1.3663E4,1.2373E4,1.5038E4,1.8496E4,9.622E3,1.3198E4,8.068E3,3.09E3,6.452E3,1.2211E4,1.452E3,3.947E3,8.426E3,1.4406E4,6.32E2,5.029E3,1.3467E4,7.272E3,2.35E3,1.0914E4,2.284E3,5.235E3,2.833E3,1.51E2,2.939E3,9.9E1,6.353E3,2.465E3,9.746E3,1.031E3,4.21E2,2.652E3,1.295E3,3.869E3,4.557E3,5.411E3,8.995E3,3.9E2,2.42E2,2.437E3,2.592E3,1.1975E4,1.492E3,6.007E3,1.265E3,2.17E3,1.8E2,3.542E3,7.372E3,1.026E3,1.258E3,8E0,5.227E3,2.823E3,1E1],"tree_param":{"num_deleted":"0","num_feature":"6","num_nodes":"63","size_leaf_vector":"1"}},{"base_weights":[-4.574177E-5,-1.2220237E0,9.1150934E-1,-2.074196E0,-8.026944E-1,3.2239056E-1,1.5493741E0,-2.6984086E0,-1.8515657E0,-1.1783192E0,-5.310689E-1,2.1272827E-2,5.754703E-1,1.2059988E0,1.8947152E0,1.7869873E0,-2.7429423E0,-1.9447038E0,-1.0632883E0,-1.556926E0,-1.056786E0,2.1189354E-1,-5.845073E-1,8.696098E-3,3.8955648E0,5.3184325E-1,1.296822E0,1.8768842E0,1.1454008E0,1.7903295E0,2.3362553E0,3.0499616E-1,-2.4811505E-1,-2.509885E-1,-3.6249095E-1,-1.1667538E-1,-2.06495E-1,-1.14263825E-1,3.511439E-1,-1.8373199E-1,-1.0465517E-1,-3.720319E-2,-1.161952E-1,-4.218554E-3,1.635888E-1,-6.5508455E-2,-2.8950826E-4,2.0221786E-3,-5.368138E-1,1.215649E0,2.2713006E-1,8.072245E-2,4.208164E-2,1.581318E-1,-8.17651E-2,2.0731595E-1,1.0596029E-1,1.037791E-1,1.444014E-1,-1.4178208E-1,1.7959623E-1,2.5411066E-1,1.8581635E-1],"categories":[],"categories_nodes":[],"categories_segments":[],"categories_sizes":[],"default_left":[0,0,0,0,0,0,0,0,0,0,0,0,0,0,0,0,0,0,0,0,0,0,0,0,0,0,0,0,0,0,0,0,0,0,0,0,0,0,0,0,0,0,0,0,0,0,0,0,0,0,0,0,0,0,0,0,0,0,0,0,0,0,0],"id":25,"left_children":[1,3,5,7,9,11,13,15,17,19,21,23,25,27,29,31,33,35,37,39,41,43,45,47,49,51,53,55,57,59,61,-1,-1,-1,-1,-1,-1,-1,-1,-1,-1,-1,-1,-1,-1,-1,-1,-1,-1,-1,-1,-1,-1,-1,-1,-1,-1,-1,-1,-1,-1,-1,-1],"loss_changes":[1.1139225E5,1.5266086E4,2.1522562E4,1.9530703E3,2.9211875E3,2.2691975E3,3.258711E3,7.443828E2,7.606758E2,5.512949E2,6.60022E2,6.6258984E2,5.084702E2,5.585547E2,6.276719E2,2.0701767E2,7.444453E2,8.666328E2,4.033164E2,4.1566016E2,6.5488477E2,4.038459E2,6.3649805E2,8.401969E2,5.6277765E2,4.6616943E2,5.559302E2,1.8083374E2,4.0505664E2,2.0299219E2,2.5167969E2,0E0,0E0,0E0,0E0,0E0,0E0,0E0,0E0,0E0,0E0,0E0,0E0,0E0,0E0,0E0,0E0,0E0,0E0,0E0,0E0,0E0,0E0,0E0,0E0,0E0,0E0,0E0,0E0,0E0,0E0,0E0,0E0],"parents":[2147483647,0,0,1,1,2,2,3,3,4,4,5,5,6,6,7,7,8,8,9,9,10,10,11,11,12,12,13,13,14,14,15,15,16,16,17,17,18,18,19,19,20,20,21,21,22,22,23,23,24,24,25,25,26,26,27,27,28,28,29,29,30,30],"right_children":[2,4,6,8,10,12,14,16,18,20,22,24,26,28,30,32,34,36,38,40,42,44,46,48,50,52,54,56,58,60,62,-1,-1,-1,-1,-1,-1,-1,-1,-1,-1,-1,-1,-1,-1,-1,-1,-1,-1,-1,-1,-1,-1,-1,-1,-1,-1,-1,-1,-1,-1,-1,-1],"split_conditions":[6.4E1,4.5E1,8E1,3.4E1,5.4E1,7.1E1,8.9E1,3.12E1,1E-1,-9.690098E-1,2.76E1,3.3E0,3E-1,2.29E1,9.7E1,9.1758364E-1,3.872228E-2,3.3E1,1.1E0,6.021328E-2,-9.3228924E-1,6.118864E-1,1E-1,2.5E0,2.85E1,2.6E1,3.7E0,3.5E1,7.1767694E-1,-8.800122E-1,2.37E1,3.0499616E-1,-2.4811505E-1,-2.509885E-1,-3.6249095E-1,-1.1667538E-1,-2.06495E-1,-1.14263825E-1,3.511439E-1,-1.8373199E-1,-1.0465517E-1,-3.720319E-2,-1.161952E-1,-4.218554E-3,1.635888E-1,-6.5508455E-2,-2.8950826E-4,2.0221786E-3,-5.368138E-1,1.215649E0,2.2713006E-1,8.072245E-2,4.208164E-2,1.581318E-1,-8.17651E-2,2.0731595E-1,1.0596029E-1,1.037791E-1,1.444014E-1,-1.4178208E-1,1.7959623E-1,2.5411066E-1,1.8581635E-1],"split_indices":[1,1,1,1,1,1,1,0,2,4,0,2,2,0,1,3,4,0,2,3,4,4,2,2,0,0,2,5,3,3,0,0,0,0,0,0,0,0,0,0,0,0,0,0,0,0,0,0,0,0,0,0,0,0,0,0,0,0,0,0,0,0,0],"split_type":[0,0,0,0,0,0,0,0,0,0,0,0,0,0,0,0,0,0,0,0,0,0,0,0,0,0,0,0,0,0,0,0,0,0,0,0,0,0,0,0,0,0,0,0,0,0,0,0,0,0,0,0,0,0,0,0,0,0,0,0,0,0,0],"sum_hessian":[1E5,4.2725E4,5.7275E4,1.4089E4,2.8636E4,2.9776E4,2.7499E4,3.701E3,1.0388E4,1.2016E4,1.662E4,1.3598E4,1.6178E4,1.3791E4,1.3708E4,3.6E1,3.665E3,9.289E3,1.099E3,2.917E3,9.099E3,1.115E3,1.5505E4,1.3555E4,4.3E1,1.5257E4,9.21E2,1.14E3,1.2651E4,1.1091E4,2.617E3,2.8E1,8E0,2.902E3,7.63E2,1.245E3,8.044E3,1.081E3,1.8E1,1.881E3,1.036E3,1.212E3,7.887E3,9.47E2,1.68E2,1.3827E4,1.678E3,1.3527E4,2.8E1,6E0,3.7E1,4.382E3,1.0875E4,8.12E2,1.09E2,9.18E2,2.22E2,9.303E3,3.348E3,1.9E1,1.1072E4,1.829E3,7.88E2],"tree_param":{"num_deleted":"0","num_feature":"6","num_nodes":"63","size_leaf_vector":"1"}},{"base_weights":[-2.9810264E-5,-1.1450856E0,7.8985536E-1,-1.917804E0,-7.8783053E-1,2.6498833E-1,1.3944734E0,-1.6064425E0,-2.3005543E0,-1.1169826E0,-5.5012983E-1,-3.6878783E-2,4.9287897E-1,1.0854374E0,1.7052788E0,-1.8266786E0,-5.5960196E-1,3.2464835E-1,-2.397999E0,-6.265313E-1,-1.2595223E0,-5.947872E-1,1.431195E-1,6.873213E-1,-9.669858E-2,8.7502867E-1,4.224579E-1,1.2849381E0,9.0618217E-1,2.0545642E0,1.5897918E0,-2.8393114E-1,-1.702287E-1,7.957698E-2,-8.644094E-2,-3.4232545E-1,6.548031E-2,-2.5117835E-1,-5.135761E-2,-1.2091442E-1,2.6983857E-2,-3.9180692E-2,-1.3624397E-1,-2.0295855E-2,-6.970091E-2,6.774695E-2,-1.6576824E-1,6.313462E-1,5.9324738E-2,-1.0848229E-2,3.3441997E-1,7.1828656E-2,1.7473584E-1,3.4004994E-2,9.012519E-2,1.17834166E-1,1.838383E-1,2.9404376E-2,1.06451966E-1,1.9569917E-1,2.6292568E-1,1.4864932E-1,1.8768059E-1],"categories":[],"categories_nodes":[],"categories_segments":[],"categories_sizes":[],"default_left":[0,0,0,0,0,0,0,0,0,0,0,0,0,0,0,0,0,0,0,0,0,0,0,0,0,0,0,0,0,0,0,0,0,0,0,0,0,0,0,0,0,0,0,0,0,0,0,0,0,0,0,0,0,0,0,0,0,0,0,0,0,0,0],"id":26,"left_children":[1,3,5,7,9,11,13,15,17,19,21,23,25,27,29,31,33,35,37,39,41,43,45,47,49,51,53,55,57,59,61,-1,-1,-1,-1,-1,-1,-1,-1,-1,-1,-1,-1,-1,-1,-1,-1,-1,-1,-1,-1,-1,-1,-1,-1,-1,-1,-1,-1,-1,-1,-1,-1],"loss_changes":[9.044807E4,1.126798E4,1.877973E4,1.5343594E3,2.1836816E3,2.1793708E3,2.6395312E3,1.6405078E3,1.4811641E3,8.175635E2,5.0201758E2,5.904952E2,4.8543506E2,4.920586E2,5.4972656E2,7.3608203E2,5.1255273E2,2.596182E2,1.1951621E3,1.3779868E3,8.093545E2,6.099531E2,9.4606067E2,5.466987E2,5.1084357E2,3.8268506E2,6.0120703E2,3.8277637E2,7.041343E2,1.8567578E2,3.0279297E2,0E0,0E0,0E0,0E0,0E0,0E0,0E0,0E0,0E0,0E0,0E0,0E0,0E0,0E0,0E0,0E0,0E0,0E0,0E0,0E0,0E0,0E0,0E0,0E0,0E0,0E0,0E0,0E0,0E0,0E0,0E0,0E0],"parents":[2147483647,0,0,1,1,2,2,3,3,4,4,5,5,6,6,7,7,8,8,9,9,10,10,11,11,12,12,13,13,14,14,15,15,16,16,17,17,18,18,19,19,20,20,21,21,22,22,23,23,24,24,25,25,26,26,27,27,28,28,29,29,30,30],"right_children":[2,4,6,8,10,12,14,16,18,20,22,24,26,28,30,32,34,36,38,40,42,44,46,48,50,52,54,56,58,60,62,-1,-1,-1,-1,-1,-1,-1,-1,-1,-1,-1,-1,-1,-1,-1,-1,-1,-1,-1,-1,-1,-1,-1,-1,-1,-1,-1,-1,-1,-1,-1,-1],"split_conditions":[6.3E1,4.4E1,8E1,-6.839194E-1,5.3E1,7E1,8.9E1,-8.7380713E-1,3.09E1,-5.160624E-1,2E-1,2.63E1,2.53E1,2.56E1,2.26E1,-4.2500034E-1,1.7E1,-7.295576E-1,1E-1,-7.0558363E-1,3.06E1,2.88E1,3.25E1,-8.800122E-1,3.2E0,6.118864E-1,2.9E1,1E-1,-9.1237473E-1,9.9E1,8.6314213E-1,-2.8393114E-1,-1.702287E-1,7.957698E-2,-8.644094E-2,-3.4232545E-1,6.548031E-2,-2.5117835E-1,-5.135761E-2,-1.2091442E-1,2.6983857E-2,-3.9180692E-2,-1.3624397E-1,-2.0295855E-2,-6.970091E-2,6.774695E-2,-1.6576824E-1,6.313462E-1,5.9324738E-2,-1.0848229E-2,3.3441997E-1,7.1828656E-2,1.7473584E-1,3.4004994E-2,9.012519E-2,1.17834166E-1,1.838383E-1,2.9404376E-2,1.06451966E-1,1.9569917E-1,2.6292568E-1,1.4864932E-1,1.8768059E-1],"split_indices":[1,1,1,4,1,1,1,4,0,3,2,0,0,0,0,3,5,3,2,3,0,0,0,3,2,4,0,2,4,1,3,0,0,0,0,0,0,0,0,0,0,0,0,0,0,0,0,0,0,0,0,0,0,0,0,0,0,0,0,0,0,0,0],"split_type":[0,0,0,0,0,0,0,0,0,0,0,0,0,0,0,0,0,0,0,0,0,0,0,0,0,0,0,0,0,0,0,0,0,0,0,0,0,0,0,0,0,0,0,0,0,0,0,0,0,0,0,0,0,0,0,0,0,0,0,0,0,0,0],"sum_hessian":[1E5,4.0822E4,5.9178E4,1.2905E4,2.7917E4,3.1679E4,2.7499E4,7.119E3,5.786E3,1.1705E4,1.6212E4,1.3628E4,1.8051E4,1.3791E4,1.3708E4,5.881E3,1.238E3,2.07E2,5.579E3,2.637E3,9.068E3,1.5231E4,9.81E2,1.039E3,1.2589E4,2.807E3,1.5244E4,6.524E3,7.267E3,3.402E3,1.0306E4,6.41E2,5.24E3,2.27E2,1.011E3,1.6E1,1.91E2,5.261E3,3.18E2,1.598E3,1.039E3,9.62E2,8.106E3,3.152E3,1.2079E4,7.57E2,2.24E2,1.6E1,1.023E3,1.2547E4,4.2E1,2.381E3,4.26E2,1.3007E4,2.237E3,5.473E3,1.051E3,1.494E3,5.773E3,2.912E3,4.9E2,7.583E3,2.723E3],"tree_param":{"num_deleted":"0",